-1.375506547883543
-0.005992016174350596
0.06813482071124789
0.002272981981819327
0.0002763961017836668
-0.03583065292141096
-0.09012507844795171
0.01151122767284087
-0.09925477747359465
-0.02504342746914803
-0.09305555438348923
-0.08502457950335431
-0.08599654775851537
-0.03278233859090952
0.08295794922871427
0.08005602532663446
-0.06119171408667765
0.05381836776490918
0.03835911948648536
0.04375049511268764
-0.01061551296347631
-0.02039886185885015
-0.07367702850073383
-0.02956954472452013
0.1044542435492653
0.006749727226004272
0.001893118669518915
-0.04650502246080949
0.0136293548924065
0.07620318134152498
-0.07845171416648719
0.002333799502256341
-0.01270937980975533
0.05592351177459522
0.005062652190344204
-0.03068819842557623
-0.05336681339070198
0.045023702342949
0.01175222538899021
-0.03157645216564905
-0.076136644759094
-0.02519567005854061
0.007032188589573507
-0.08742858654239692
-0.05069246342091206
0.00506043270401192
0.1428937467189534
0.2886285680682191
0.4202899850648731
0.122722608760718
-0.1911335652000763
-0.3324770008186054
-0.4264305973607981
-0.0904957823109756
0.1666114340014803
-0.229199005470864
-0.03632032802694576
0.06285473028148489
0.1994257717420095
0.09991243779571064
-0.1027489477877735
-0.0579612153962058
0.02030309944119285
-0.04864551800325415
-0.03392570350795743
0.04713127311074906
0.4309311271955163
0.9074582062615421
0.3457297324123187
-0.2314761998636158
0.04518371040385444
-0.2868914448213016
-0.3762384649895741
-0.01568275076752587
0.2235958623368871
0.2010300489469105
0.06506418562835496
0.1090336162700483
0.4582873824270582
0.1822231753646352
0.02490203490218597
0.05595019882625878
-0.04281166923696725
-0.04441078241412221
-0.0005626204851624185
0.3792530544596402
0.6883983307853755
0.7793536711226626
0.4578792824604761
0.3442045700298528
0.3052906355546068
-0.1130574614881399
-0.2744016281926039
-0.921699777141948
-0.8051157354911586
-0.1060354804116883
-0.5630440767305797
-0.5195448712191076
0.04635631162974999
0.1588916788650169
0.1142266873364504
-0.09905673440785427
-0.07293671133662585
-0.08769082774482027
-0.1507050129464923
0.3255115598229624
0.3969055911244382
0.186307492820451
0.2870278007862804
0.31686151008338
0.9187198975510915
-0.2039117440851845
-0.6396746914019098
0.6981807163831091
0.1583603417690585
0.006921042003723661
-0.1155531361695282
-0.9090760865213096
0.7362521799557358
0.5035315591502314
0.1224563081296395
-0.09716518651546781
-0.030476493697355
0.006995125097484213
-0.1576698976015822
0.7354730808865678
0.4190242958875495
-0.4117916800113915
0.7331211911193313
1.253551962568944
0.6051356445391401
-0.2691153691589583
-0.3423515976759979
0.3389316246323854
-0.358355968785228
-0.05528607458143419
0.3905002012702604
1.014988679035935
1.478339650095393
0.274762828990676
0.08725422977640389
0.003029927078467948
0.01986526828196554
0.4274697504593793
0.5261692109664339
0.002474438748577547
-0.04730970808926869
-0.4878429723916912
-0.3826757147376146
0.3059330773629602
0.7189530095994737
0.2735270274846019
-0.6167662392577355
-0.1387699349065694
-0.5919365280167629
-0.04586127250931121
-0.8333324252983039
0.639852069903683
0.7727353934031512
-0.1338204598629732
0.02925895511397663
-0.06403740935693665
-0.06830715863619319
0.4729363762379678
-0.3232360591447458
-0.03529455034859715
0.8737382925564422
0.02431068788141137
0.07301439895506613
0.6727666766939947
1.070216369484964
0.4538743872679596
0.8374535995427287
0.1937940000065383
-0.0787123647763409
0.04671160887657821
-1.336585118497433
0.6264865536756434
0.7625459751815228
0.1119197993474229
0.0541839299605391
0.04361072310081172
-0.02059141998638692
0.6643903086785594
-0.3243699338442882
-0.267644721491027
0.3622693584811212
-0.0197783614109927
0.2372909132820707
1.456617233311736
-0.275584076011419
-0.6134729881011648
-0.02696572873127195
-0.4594411666944881
-0.2944450293170008
0.1119327362522358
0.9067068066292734
0.5330386788711879
1.143697586153215
0.7987520055453108
0.0496712221953766
0.02225691055046385
0.2426300153909582
0.4185458240368397
-0.3058170721720105
-0.005347138736602931
-0.4922868309556697
-1.004227222877102
-1.502560539392811
-0.2215911248047774
0.5661032379177875
-0.17165452490893
-1.216474673466701
-1.290544854877448
-0.3261772232398097
0.7776987016990429
1.515683234761469
0.005771788937552597
0.9208255927424862
0.3898487917895424
0.05436265450481037
-0.09226784770068107
0.3147925539331286
0.6056040957127148
-0.2913160990462808
-0.4623825479564612
0.190163173241495
0.2671577379741783
-0.07245899717588146
-0.8044854132964615
-0.462845592656518
0.00598914067098081
0.1046429226162431
-0.02503737488553229
0.080868015670764
-0.2734354639350947
0.407988995988742
0.4133339460308747
0.981311160772226
-0.02496819477017824
0.1004091404252941
-0.08809080625298765
0.3159992165849643
1.124091353950623
0.7886581903515832
0.232435202084434
0.5127290858963289
-0.4444977604598265
1.075074955411416
0.939154324004562
-0.1793301839824099
-0.3598235815331227
0.3105063936110732
0.5047884687132289
0.06667264164398601
0.5748046568619848
-0.1683449180135469
-0.359554318975537
0.1421221722502103
-0.295470334268724
-0.0007098870305648064
-0.05824568943359415
0.3667289419033342
1.203685067329564
0.5233172111304236
-0.4361317705199063
-0.5833783048659742
-1.031058797765138
-0.1980107833059569
0.9251032279592005
-0.2716753070847975
0.3206742591867316
0.9607581826732573
1.154268814757806
-0.4362745408884647
-0.322719950253242
-0.1708904589036894
-0.3039634128900714
-0.2483060515063821
0.1087261428911473
-0.07672450249805976
-2.98825009639913e-05
0.3051765817898367
0.6306657102892804
-0.4112807331324833
0.1724310700248921
0.349162148480036
0.1261869956891281
-0.2983943472614479
0.3075943931815235
0.8023982743077454
0.8147717325424911
-0.09043974392221361
0.4960140767271254
-0.3281913228006877
-0.9103777540956451
0.1540117909426041
-0.2641400078554297
-0.8216279359451523
0.04357299421888764
-0.005903587997252644
-0.09270561927740485
0.02422027090918341
0.3319320588196639
0.3932753226627447
0.4420186841827157
0.1194559185230474
0.3068763557520968
0.01853502584803327
0.7566069121416443
1.218708341477297
0.6722688199046147
-0.6964017245097688
-0.5264677502530187
-0.0126385357062563
-0.004258860044933863
-0.1626730039015051
-0.4451801432422985
-0.3942065402789305
-0.1677618939376201
-0.003793727491986448
0.02533819192081524
-0.01605181067320548
0.1191055122599638
0.2466717443339599
0.4168864380994717
0.7600473132436033
0.4390239707616423
0.2693078334460746
1.516079964942976
0.8352792161429621
0.6780569322684263
0.7893013952647657
-0.1217188988639561
-0.455631768675223
-0.3762174942376379
-0.4303821849285794
0.02352798611431434
-0.1064342251495718
0.04828648990416825
0.07189332476152498
0.01759416744493457
0.07245999349510983
-0.1027490929238034
0.1032389185865374
0.3943943176499545
0.5859179896153285
0.4692149732785123
0.3054073882064681
0.5010347014883297
0.1200731828857423
0.1890392695333654
-0.2203942171594945
-0.02750050933037101
-0.1427379530977611
-0.4089180134374776
-0.6266491304117919
-0.1180383500799468
-0.01975241313368383
0.01885041423385826
-0.0663273048107495
0.01411984778136821
0.02973785599736713
-0.1187856787722256
0.0856606905633976
0.2550748719600076
0.06927060909930594
0.05274792232815021
-0.008893320918093457
-0.2700161893896359
-0.167487075492431
-0.57784153585389
-1.468872314304579
-0.6099102505316267
-0.03228964624554576
0.04122862611009128
-0.07834125780558499
-0.10986978025513
-0.03743422055410398
-0.02866408507194568
0.06694019795844532
0.03103972737501669
0.02441140394728083
-0.042140511889642
-0.004173058813792292
0.1748772005108943
0.1127530463306632
-0.07144535916754985
-0.1003544346734317
-0.04302624105906841
0.01188975088342967
-0.1890847026511571
-0.3553161189864296
-0.3698503311572458
-0.214103080989097
0.04118478873321669
-0.0716805855015441
-0.1501742580210253
0.08223613687043059
-0.06004144978671646
-0.08010280966464033
-0.9450590034503163
0.1038501448173067
-0.0920905686370294
-0.02842520821626446
-0.01394694351880999
0.02819949311960797
-0.0007651182533067821
0.02539661431755072
-0.01886385794184534
0.04497709032734028
-0.05778102761287439
-0.02668399679092958
-0.03752196711727278
0.09979500635392882
-0.04076988322211986
-0.02932649317118132
-0.06846227176690008
0.09205329667211803
0.08937569046488811
0.04425209543564585
0.08112296675975918
-0.05584163400563121
0.02572078485054242
-0.05680252071539362
-0.03478437026986669
-0.02266743859395363
-0.05998132326081954
-0.1380051133635459
-0.02390017858058934
-0.1140288743540761
0.04454051239329479
0.0827520498747536
-0.06774913410703121
0.08222383580315475
-0.02348533102405065
-0.1111434191785334
-0.04566754945398497
-0.06763501910480613
-0.08729857722349514
0.03295921975753351
0.08758196957714814
-0.05238264986943086
0.02977531316244732
0.09563805451383516
0.07059192651809065
-0.09319702997009661
0.07802047149556682
-0.04226005563387311
-0.5167713511479866
-0.5945189218704414
-0.3798297527482339
0.1231727420486407
-0.09511636828716934
-0.0542018527216904
0.2536350757442677
0.3362651220659176
0.3352256233418661
0.005564195107082139
0.02202232753174081
0.08617638320502159
0.03010145308988222
-0.05291473613811871
-0.07223760165499801
0.08352360970223702
0.04046304600456369
0.1487690087951773
-0.2740013041215745
-0.3642389444781772
-0.6307410905578669
-0.4280671511035828
-0.09146901989476745
0.3685830067694187
-0.3575102801441136
-0.2165887363180272
0.5597262786415718
0.9097325056259322
0.3098784849113564
0.1345668629487547
0.02053571527402531
0.06350081544554738
0.02533894719722112
0.0565816049060513
0.08503618408348142
-0.02184128921769018
0.160493237635896
0.2613268348914975
-0.5235591220054218
-0.3558092031018744
0.5275044027224359
0.03175046222927492
0.371995540516825
0.1429752126252889
-0.3732267077258791
-0.4802139486675451
0.7420847950212521
1.011847767933727
-0.08828241525959199
-0.3821370530495922
-0.2125699766348847
-0.1456009832803148
0.06546853261749486
-0.04267384548824664
0.08240002083338509
0.181077311495773
-0.07140637614406661
-0.3180349650983511
-0.5826128767706131
-0.1270452603654758
0.108940937321999
-0.01962431485391887
0.8080146296577357
0.2327750010005838
-0.5253044965497696
-0.05393988038517118
0.4808161716864904
0.3198641483928643
-0.2412921457531678
-0.8455783499983474
-0.7342819083065466
-0.18255526448288
0.1205651016623975
-0.04781799949608259
0.09197839100053691
0.1782675922611782
0.1449092702750831
-0.3196307568832327
-0.1463045712738186
-0.6930559076788417
-0.8378890640411004
-0.2986582146893655
0.4858380311025756
0.4068237268824743
-0.0002498490565985832
0.1145960618989282
0.2146586347742677
-0.2801514758394922
-0.5100726845570671
-0.6811065668437969
0.249852548041072
-0.1311911137901304
-0.06278355309951099
-0.07826328501968992
0.008462935228510746
0.3181183719204115
0.4765130970832493
0.5834764226188874
0.02580329495151
0.2464475499226152
0.1187404285858396
-0.4167679101428748
-0.2980409477956292
0.0370996320265911
0.09649865564150389
-0.5661891464975928
-0.4391683173307033
-0.5697906286572694
0.0251672193548361
-0.6060179858946729
-0.3643729591395884
-0.3281510753380207
-0.2713185836083196
0.08449712512701776
0.09713999218163151
0.6004430966742491
0.5355676767568278
0.3128961553898143
0.01807594557227851
0.281863362418582
-0.3230016912551147
-0.3214120996198674
0.3687675915736133
0.1419998678114189
0.6030522770855015
-0.02592090404708702
-0.06163441877677883
-0.2745543901325993
-0.2171395240429932
-0.1180073089775682
-0.2014850610822907
-0.4330252634937237
-0.2242649486680222
0.08590157160526407
0.05609227811638119
0.2871081672645955
0.2091037330160534
-0.1316319571739029
0.06785512933935495
0.5429649732616609
-0.4456905885355695
0.091300609373129
0.9587333579086557
0.8076348999100407
1.850910543684083
1.208337023293452
0.8701887076687629
0.182911896239367
0.5334010917712982
-0.1372902789579979
0.1980419458639136
-0.08936662056921174
-0.1584696963074742
0.04079858497652406
-0.05664291558499378
0.1997482586887996
0.4287628252866842
0.08203344196534691
-0.2019241678114568
0.04194088818474034
-0.006267298684463676
0.7355662992288715
1.92390225386185
1.944004971323053
1.473111010091884
-0.1820720874292016
0.2797621757928921
1.095226642620112
0.3828821800271323
0.05241397736449494
-0.8246110054271394
0.04449610199116546
0.2475686488127812
0.02197397420917138
-0.07989371964882651
0.07999517089585002
0.9949924971132205
-0.2922087664221489
-0.6396708847410134
0.3087684504459997
-0.04413003033325912
0.5207006868609509
0.888968760656781
0.3366213948132101
0.9458664911022563
-0.02130567614974162
0.5591254470756292
0.5742989233470275
0.2582772757713341
0.1692622414788975
-0.3813434067030239
-0.115240175779727
-0.2871947737404288
-0.02213320501015926
0.172663665019972
0.09437582319258887
0.7239022048405451
0.06810130774559069
-0.326224830030057
0.1016022667469921
-0.8375397085974015
-1.150392193316725
-0.4418951779784631
0.2028077762984474
0.2005643716113854
-0.3641026600858705
-0.2953185136890119
0.02408797498524295
0.3557359965533743
0.4218554382272958
0.7033438649541115
-0.03565557655954369
-0.1785399571160874
-0.06159951467161367
0.08938264970121935
0.2862215646202344
0.06702202213456372
-0.3056546848797044
-0.7734598933154238
-0.3848201434611199
-1.16464281433881
-1.140707845470518
0.2688371500115017
0.6123513936620799
-0.07287246058639003
-0.8087153832669877
0.1168431466100889
1.204236785435983
0.946608453919436
0.4585080885191874
0.2520951154012566
-0.4381630067714632
-0.1554647406438403
0.09004932129369415
0.0921661424105292
0.3798979786637121
0.1022566449604515
-0.1954256089527182
0.0903857924194047
0.3975495917880915
0.1569249597024285
0.06387941795238043
0.4915440991506619
0.04608482820321592
-0.4811667681218109
-0.5996843115124469
0.07575578512870282
0.4297832935080033
0.5351523682632641
0.4935847579506339
0.3388997847415599
-0.1884778338304567
-0.1912294153607374
0.06744623632788557
0.06326630999857012
0.3943991337191101
0.09381495949388402
-0.4718904245383351
-0.3125475357745
-0.1328439280450704
-0.3814219202509155
-0.7661112434952064
-0.5394287548866069
-0.1462069017681044
0.09066038942252637
-0.7037017760028119
-0.5538704933761358
0.1742136985521442
0.07686458662750023
0.1219205239661595
0.2342481248613682
-0.2391546701178898
-0.5108202553435576
-0.09425013643646797
-0.000479659242702645
0.06980337693820908
0.002570896473234303
-0.1256240725975628
0.267036239256641
-0.1814862884946005
-0.701952398458671
-0.859913496171681
-0.4105339616516822
0.1783103244968021
0.22837947105021
0.34193592986809
0.6922442198792859
0.7195813637622241
0.3160906484827369
0.3395389708469035
0.2503778604832262
0.04586181680241776
-0.176000779865189
0.08923570820209188
0.0721154078831709
-0.002175535557088824
-0.04162653469621228
0.151831458706589
0.2730259487524053
-0.003126715005684489
-0.2918484180447439
0.005432957212627746
0.0654243604737151
-0.2193775321876383
-0.256603710790673
0.03308569468935828
0.2453457717645756
0.4491347951306831
0.3082353136560882
0.221694260392491
-0.05249161178420964
0.04543972481629677
0.08979535591872709
0.008024467613467718
-0.0184891832865073
-0.01330248167962027
0.03000763228586568
0.008318129024170284
0.1445608244345288
0.12213469305406
0.01381636284759859
-0.01977462593739011
0.04198098873482023
0.07425664044631478
-0.07292825839423608
0.03793678198556565
-0.0988995745750403
0.07117596996510249
-0.09906709702878014
-0.03373527774453332
-0.04944716191907495
-0.02299437676733816
0.0701111328494208
-0.03572431726902109
0.03739326223655606
0.07121436664038444
-0.03951067535405934
0.04553315771835088
0.1065135133972322
0.1542617488523108
-0.06132080088449121
-0.02725650694708775
-0.08869564612818216
-0.09630293557632025
0.08311711819044618
0.07064680679873597
-0.04870460573965985
0.09059163198764952
0.02144333913684235
-0.06549539605551434
0.05186831959156232
-0.04990452658545487
0.05188334131211952
-0.8646112853134698
-0.003747242224426754
-0.0489940733611115
0.05979583133929801
-0.1012946510327919
0.09349310692730835
0.0034350066367983
-0.09923710193786614
-0.03449258121556004
-0.006098546407110249
0.04767833575356265
0.101425479219193
-0.07446951487651374
-0.02835388703216205
-0.01758198225536392
-0.06543565122224239
-0.04516902080986081
-0.04866079639301388
-0.06962648283742991
-0.06091920675889045
0.03173971517705616
-0.007317328055964654
-0.04413187793992241
0.04420637184301852
0.06956363369523774
0.09125654887264373
0.07653085672663192
-0.1168103685656238
0.02303636659473294
0.05391716203033488
-2.681584313584052e-05
0.103171399433701
0.07660668494467919
0.02137726789818655
-0.03325030281002409
0.03983286126046943
-0.06769553064499338
-0.05257911692804226
-0.02266889230326999
0.04317389341381776
-0.02127900656347761
-0.1060445031734208
0.07863753074406375
0.03739138054784003
0.03005958564310075
-0.1623615480677562
-0.005262493269868307
0.0642601113827737
-0.04683652087688706
-4.652506186310495e-05
-0.01275781732605788
0.1925436682861003
0.1897341641795478
0.4013906625163939
0.471481764101718
0.1804066253543857
0.0399677513259066
0.005575073002741855
0.02564508622044467
-0.04257790540048742
-0.1061013318571623
0.09231085691457075
-0.07842838368194786
-0.07615135659751883
0.01102293626460476
0.07805882624669248
0.2546583074938956
0.2503827599674645
0.1765331180830974
-0.1167222457756688
-0.8094634200614944
-0.800595127746094
-0.3429173178500943
0.09490134309204395
0.6027992468424272
0.7056563975974346
0.3279867306743115
0.1735453483026741
-0.05757283028109122
-0.0369303658437571
0.06278573579478819
-0.02912629560496886
0.06797038084280735
-0.04593790591631473
0.1638884260509567
0.1636067677987499
-0.1300898022214028
0.180731571212411
-0.105259371900504
-1.197669220014441
-1.472222282389047
-1.422716219523895
-0.9927959622038279
0.6422541843569328
1.188635918614841
0.9156159228345379
0.8871911303819968
0.04388803583418468
-0.6607204807859892
-0.3995110003808888
-0.04060680282900845
-0.01186215132447262
-0.1006474210685698
-0.00677728000868973
0.1446019683646237
0.3389554384499296
0.7600847398164734
0.5909912440646204
-0.02761473562281415
-1.22891998127663
-1.096448205047703
-1.18421683104207
-0.9872997573544839
-0.7599698931700744
0.6967090110657799
1.075686126449152
0.4059171627247203
0.1741263291076373
-0.6115842384394924
-0.5535811111275125
-0.02693805951781332
-0.04077363525325955
-0.03610057252321698
-0.07527619930157513
0.3767068072239912
-0.01387063890753301
0.6961705271973249
0.002580103138266208
-0.3741450245127527
-1.302667993554835
0.2301520138951672
0.231416170972787
-0.7393029739644577
-1.191631600601238
0.2610855397054421
1.605795805413057
0.1525239144407365
0.2769064457307715
0.5758205666178842
-0.2519462292675171
-0.05277943788540501
0.09181817957736808
-0.1326253635769161
0.2810937782710505
0.2160123495593821
0.003809778667745525
0.3021185052731215
-0.2778170360283783
-0.5042338449180372
-0.9558416453855036
0.02748714878024469
-0.05179274418686719
-0.173900061840991
0.4942382285285753
0.8129645654753416
0.4707771817483941
0.1565005861872528
0.831699515069977
1.083870737975352
-0.09844054461457408
-0.05068968792556174
0.06540445483672871
0.1072987224717299
0.5595656913863154
-0.0557235336561795
-0.3374984031823499
0.5278384742172885
0.3684237760333752
-0.5394314878831152
-0.715884431361298
-0.6119529438581318
0.2497550225804337
-0.09812893226205215
-1.023563073863091
-0.1811362155412723
-0.5500897692106698
-1.052762404635637
0.5880510075524114
0.6606241800760113
0.14650229128929
0.07945730997164653
-0.05636234252542936
0.02602138401063737
0.4699783200362528
0.2491844850144782
-0.1595163715525749
-0.4276781963394323
-0.299754388188306
0.1133606443696742
-0.02902444475323451
0.6999267135857812
0.4848893571986096
0.7560462767282822
0.284235932994491
0.1900869153788973
0.6069397483974616
-0.2173768564213004
0.03534883632608377
0.9176387950213907
0.3416846666211515
0.1426540449504361
-0.05630151399907184
-0.1334080349089475
0.1682320531419327
-0.2869862317950061
0.3213096270773424
-0.7281281248096865
-0.1010729013424734
0.2404764848708772
0.7730800564844712
1.774492017560463
0.65801085769692
0.9807993679634902
-0.3535483350811477
-0.3130332594381036
0.4294366508945345
0.5424085853294328
0.8541477120584354
0.4767673374683836
-0.1724649676099734
0.183706357198416
0.08659213282312374
0.02246428266104911
-0.1704857892098036
-0.08923719995714526
0.4249436695188462
-1.005009509823004
-0.9913559893229024
-0.7265225072287816
-0.7175264848586652
-0.5433495692683865
-0.0001182040577299378
0.04580116064251777
0.4532638720985302
-0.1081228041158621
-0.4269769982379222
-0.1181446403056725
0.6146752892528965
0.1441095358961593
-0.03414421640228733
-0.04885828174181276
-0.02785932364269936
-0.01446171087839791
-0.111930740338479
0.5456922790815062
0.3836718845327928
-1.106065225787833
0.1154080471010377
-0.007600695597169194
-1.398256526156549
-0.2733630900388476
0.3344910361187534
-1.016052056349994
0.5687718526646302
1.101043908973382
-0.1026496761585707
-0.08755255505844363
0.3887748312528813
0.2994856003433974
-0.0507499845436226
-0.1385158601861324
0.1026824418773011
-0.2386882192141883
-0.5406754223463585
0.1847037101373517
0.4901184167439753
0.6636632353093463
0.7270970419787715
-0.4926815195434291
-0.962702783622073
-0.1030954909307599
-0.252720606821047
-0.453227148186192
0.4803799661212003
0.8199653227365666
0.008989380340746232
0.08749871380591497
0.3488712862364854
0.4708821880915448
-0.2449633118430036
-0.1441903977588351
-0.1027929910324524
-0.1648478453491696
-0.1539696186650722
-0.3096173134602715
-0.3478296154640512
-0.2184382866150784
0.3506171242346244
0.2638506404474019
-0.1413081549929955
-0.5149518609875671
-1.023919863812272
0.2977431037625398
-0.4263990113590331
0.08824275080414279
0.4283291833753133
-0.4910718189520655
-0.1331188650018679
0.1913844103981355
-0.4082723193820016
0.01514497746803989
0.06957617784622717
0.03309569262096361
-0.1884355832059684
-0.6440813516507342
0.6159351055695887
-0.1681187113222852
0.5452142535832171
0.3311543558382781
-0.4852618134885834
-0.2373340112794558
-1.516218288633784
-0.1257784944060093
0.3583791657816532
0.8777014264946367
1.266243723627805
0.8911601086858072
0.4345653253771419
0.1036086940805444
-0.08379256642004823
-0.04765444640096549
-0.08951388444990455
-0.103536223996276
0.0586585805227537
-0.4138925520619899
0.3880490713113067
0.4395616309168192
0.3335518585564007
0.219850799861223
-0.7095022039552766
-0.5333475391607112
-1.231880920501196
-0.6747187288157634
0.3105356893905639
1.030073221167166
1.22055519747139
0.5888505422575171
0.3051442039413803
0.05979597799164121
-0.1385243560393901
-0.02572642546534458
-0.07633549726235035
0.03639925393674562
0.05927416384090783
0.19253441773252
0.4757100437360954
0.8395514084152976
1.368268533393201
0.4199580078012414
-0.1000250670411412
-0.4951908982580901
-0.2671743993351882
0.7571894929787691
0.8890046778747327
0.8994879922341715
0.3331205431256839
0.107647185351867
0.06715864616550611
-0.09793954986321107
-0.1299554695837294
0.08094625516253984
-0.09252444331326218
-0.04861864910893143
-0.08838166164081886
0.2014110513374988
0.5576214620387644
0.5158856862214609
0.7557958933231166
0.2080741420319703
0.3911133309199874
0.02869704348164273
0.3635581870535149
1.177013193570715
0.5915006845758278
0.3046467835229901
-0.02653674679638311
-0.04384510320497445
0.0004010202136552348
-0.09056732392213929
-0.05956745612309655
-0.1045842789602184
-0.0352713753019971
0.08666219516156816
-0.09700401836431045
0.02019280661019593
0.1178564569679935
0.2489851791686226
0.2234718153634334
0.07468889426279747
-0.01810608003982726
0.03660449040764538
0.004541432963580814
0.1917044244266746
0.2214870264044477
0.06349314193124743
-0.08216332512468114
0.03607280236845183
-0.04102737357120114
-0.08161685469967971
0.008827686475413236
0.04893259265410004
0.4746091309494103
-0.1009637755657551
-0.05066954879513279
-0.0479686995215285
0.03335833106019213
-0.0126787249977403
-0.02068125499604507
0.06550546773420581
-0.002067573122044343
-0.02317280358284216
0.09936545321065042
0.04714864996671649
0.1005363884993988
-0.08172760334868615
-0.01895571519650338
0.07322816014444501
-0.09333608241323701
0.09467000651025483
-0.09811202062022481
-0.0449612540108931
0.07924964448650068
0.01288310230512191
-0.05881224146044808
-0.03589726437344041
-0.08011477283681548
-0.09156978447818542
0.05685902241836433
0.01963571909982964
-0.02549579893618125
0.005067398096338658
0.008142858050718762
0.06878848521156011
0.1051810374841191
-0.004902657814153036
-0.06787995126636742
-0.005395998978351133
0.02971888852818689
-0.07851553416867185
-0.08458847803732469
-0.0718577184265948
-0.04290992748714097
-0.0738067069103942
-0.05515452154728792
0.06401487455868372
0.06312510087713986
-0.07917955621876835
-0.2033865751621707
-0.1749730492183485
-0.0790437520740097
-0.04279383225180435
-0.08126381005300291
-0.06658350243056725
0.06915829794043769
-0.0487236847470046
0.0661089576265439
0.1248721195809245
0.08123699696749996
0.03833686520928543
0.01642914603326836
0.0250437746325419
-0.05491549389693991
0.06736933826514649
0.09931324417668803
0.05719616452740041
-0.07003087728475675
-0.3165962097172563
-0.441744647971346
-0.2060449163722488
-0.2342775317074724
-0.5969444135732925
-0.4964209633000874
-0.1089036588027689
0.3430409373180006
-0.0105592691622589
-0.2774900154207113
-0.2240074283473846
-0.02621776208279905
-0.0321712497926708
0.06122509399144638
-0.0376028569398145
-0.03897292306599073
0.01956529071925321
0.02870083546477653
0.01481804145193148
-0.07081001775374592
0.02370216247723018
-0.1098059624855408
-0.2262950262845016
0.1072044460511589
0.2657129024191495
0.3307565332282832
1.073683834016548
1.120025280048802
0.006523610213763844
0.2252826380941723
-0.2178104737229384
-0.5841512188086326
0.2371619959202716
0.2921526665311734
-0.08248654882771092
-0.001292350473885035
0.07411014467080496
0.09957816340764604
0.08228560731510004
0.03721486895162478
0.3400009765526236
-0.3671428342915
-0.5775714004540787
0.1246496140757453
0.6545610675772221
0.3626756367559001
0.2588424470367675
-0.02987538021062207
-0.1949985512308867
0.9900793639713736
1.00921163571956
-0.3291219730108813
-0.172368322776685
0.1763317778831824
-0.1526540301600706
-0.07799577422031156
0.06398464261835968
-0.03944206650119323
0.02862603905283961
-0.1055419985606505
0.7655905218068005
0.1378410448423555
-0.3368777129731286
0.1324930579238917
0.7736891351950531
0.2144943048287822
-0.319215759998113
0.5422829090095345
-0.2252328249344061
0.1223474533131008
0.7456703129912641
0.09831141509326043
-0.2369566373441821
0.3542308429342664
-0.3140355085484664
-0.06462395434550054
-0.0698062897043738
0.04830002383799271
-0.1362038833404476
-0.601624763395895
0.7861491731032065
0.6305620781773273
-0.5426600900616028
0.2005999442424975
0.8490573435233161
0.09865114954888748
-0.1302254067194357
0.2959662722045322
-0.5849122049670186
-0.9215338305436829
0.4961984879336436
0.4725771690299511
0.1001254856654689
0.7396652523473692
-0.1252307892167932
0.06837916026459334
0.01904108196926708
0.1376589738602991
-0.1419123773456439
-0.5782343850209195
0.8170768143136518
0.4508881041866359
0.04807067006412637
0.6983816773092504
-0.1459338761856855
-0.4134810851747638
-0.7192798169385943
-0.6407698126824782
0.3334748069563336
-0.7684444773820284
0.1773167761913828
0.4723265079237293
0.2361037254525054
0.9279749326408367
0.2328910142281831
0.01310030558964017
-0.06490526300542661
0.2043238597584358
-0.0887940900354293
0.01143913342511073
0.4492522280199016
0.5071005892891983
1.031422756128286
0.8400773535841749
-1.007754842624935
-0.2200622846344405
-0.2626838659411648
-0.6855405271606591
-1.160145600074514
-1.176618789002758
0.6388940714696053
-0.328795379399776
-0.6081346850415214
0.5380555314068888
0.5771775375746415
9.075356607833945e-05
-0.04219129889671867
0.2745633627977858
0.1677321244962764
0.3793173764892383
-0.6336231802631439
1.145694861924986
1.292976514173209
-0.1272975424505553
-0.7871578683218042
-0.8846045909029865
-0.8531485139102688
-0.472577851351219
-1.219118758827308
-0.3323613328367902
0.7291649414389252
0.4900191469372979
0.5371525070565224
-0.005481698620725829
0.3949402364371536
-0.1516110958947626
-0.03829154347775045
-0.08720174210715459
0.009216204373739885
-0.2022029810971716
-0.1766101294093993
0.05320720951817378
-1.275079309396047
-2.381277574091003
-0.292998312304708
-1.017873602550392
-0.3696009911848341
-0.9965804717614501
-0.6017591890011256
0.4037984085601007
1.916685010260028
1.157292365271946
0.1614465373426395
-0.0008738176816282058
-0.05442374518272278
0.02603708714479497
-0.0863109327662288
0.2577539635684333
0.3781490590040588
0.01529932543694789
-0.3584722828974485
0.1770171358917481
-1.326777781509237
-1.507085913872725
0.2034015739970094
-0.3415486292670304
0.1920901846312703
-0.3297674416714678
-0.1097532411766255
1.188504818432209
1.674929072024337
-0.340983073622309
-0.2344043854064664
-0.2505295887486588
-0.1381421312631551
0.03189125913438508
-0.06185446115469307
0.3502532726822341
0.7213509834454694
-0.03037589195309846
-0.8840564334885914
-0.8182317139326959
-0.4411096029321397
-0.5922594587859783
-0.6893634142529392
-0.4915023243581699
-0.6554769677381698
-0.2839831114429294
-0.4707383886708592
0.626675961994094
0.07217514886557265
0.41589872207477
0.8076165303730496
0.1105576842353924
-0.07995882491430684
-0.002833565092476897
-0.06674634225715455
0.1373292842476478
0.5100934307037254
-0.02547951802303512
-0.7512481958582572
-0.0624366732523503
-0.3732711510502093
-1.144680184020174
-1.369467004380414
-0.4184315240157203
0.1448542916753445
0.6828520920841087
0.5452271717232482
0.4517503200889521
0.1130657230159481
0.2449344639905516
0.6099858437080778
0.1290940855809487
-0.1613110370319336
-0.06019515198513839
0.06520583196583478
0.02638951719934345
0.008678476873401543
-0.05042658200697014
-0.2063977794934937
0.1097021582827665
-0.2235929344733959
-1.684235584913066
-0.8134628510218206
0.3839262841008163
0.5709821749125019
0.6943359376055256
0.2935560054601339
0.2344904581540335
-0.1588247044522052
-0.3796894500375637
0.300678215476087
0.03490564080315686
-0.3336493731592257
-0.1463932468031073
0.02251999163011359
0.01856840133426663
0.07827656911560407
-0.06061849066279793
0.05684111184806858
0.1697568727748701
0.2379891067644564
-0.6448572373590988
0.04103357204900916
0.3955717566846064
0.2938064556455569
-0.3538756036271208
-0.7816610596289939
-0.3607884021587075
0.3275891056728877
0.7243239760786667
0.4278333092424003
0.08409310527991393
-0.1000897696542303
0.02561573626365925
0.001178893750327151
0.01048838548275707
-0.08053083096446953
0.05654526716270887
0.5554736056349154
0.76391579082057
1.095367912264325
0.8780638087914719
0.6320926473127311
0.4337371287923005
0.3622276019118471
0.1614536658106737
-0.0683878739977674
-0.1911044479181547
0.2713439771792604
0.5430365256201837
0.03821469139300215
0.05997860145678705
-0.05205465604437061
0.0565607842472663
0.1040841150755354
0.1012745081212876
-0.05756835543600731
0.1472912589661957
0.2592489497821606
0.3473359146827122
0.3973135446568303
0.4632799918703098
0.03726293687242024
0.0731274859154986
0.04570147354962309
0.127339501645629
0.2874210561555539
0.0955077848787121
0.06585248752360964
0.01414041841174772
-0.03761374303568295
-0.09148285333760217
-0.07607319773655744
-0.03098152009165988
-0.06262873673031222
0.06427291224453235
-0.04259057702389486
-0.04083765756256382
0.06588179976959614
-0.007458946486687583
-0.07844485408322663
-0.002500459487253974
-0.03415165093574424
-0.08918986616840141
-0.1009152767997685
-0.1431074277121432
-0.1072390084242016
-0.06767821448980647
-0.02659828891835129
0.02860869358653641
0.05159519894487681
0.01745814177223133
-0.08191981745222364
0.03301952667781855
-0.777750709852149
0.07135588562166703
0.005409174100076269
-0.09830577978654077
-0.06829296375787046
0.03452768014625403
-0.08068862724831942
-0.07287617937320479
-0.008557255821466095
-0.1016108505778468
0.04367694535397246
0.05364721853158822
0.005441486136361828
-0.04472372316688097
0.02731373641167244
0.01850991437374119
-0.03585251556551414
0.1033948731841037
-0.03008051648290028
-0.09744964723909331
0.06749882256525652
-0.097000914280175
0.01865373107526928
-0.08815863631955005
0.03206303106282597
-0.02322440418701082
-0.002753871084895363
-0.04706696043645087
0.006843391844718205
-0.1043431744498162
0.04274761795331664
-0.05159828782351861
-0.07909612985396566
-0.07792799984156876
-0.05733324311703146
-0.1249393991068365
-0.05746223788668015
0.09380436600210548
-0.05816828422565842
0.05099221975069543
-0.04826970392942792
0.05687278666139439
-0.07435255674770888
-0.0946660214772249
-0.1071484782414708
0.002062648291573976
0.1135516436426107
-0.1035027909570015
-0.3784656083148907
-0.4039558378001822
-0.1759054339228523
0.1163327778697194
0.007036226036371595
0.04775542508931598
-0.1152350398136631
0.002312719227850944
-0.07111581020250904
-0.1245534203850889
0.007114682424825948
0.02092771418537106
-0.04364440111613381
-0.09441259918382094
-0.01443812592516537
-0.05018057264853117
0.1741583025073842
0.3837860840542809
0.2252953482398793
-0.248737412441427
-0.2234374776612926
0.3437766963885366
0.5453902115984403
0.6028504466898
0.05079896725862421
-0.3121730115520537
-0.1970161381279135
-0.07810547748179322
-0.1252348838848466
-0.2363198163758762
-0.169018774068179
-0.03259597163359616
-0.03198538537283549
-0.08061019711341348
0.01593523576913435
-0.04030285851764441
0.2663480991859441
0.392422076036588
0.05888825767108344
-0.5152028406197429
-0.5829319466212622
0.135446629304185
0.1128807165561015
-0.02236896971714989
-0.1199436115798934
-0.3896997706998853
-0.2175837922368681
-0.1423846547289294
-0.1684787537524398
-0.05204074150324309
-0.3866164858232278
-0.131240356794534
-0.003104718694647653
0.02309370061424142
0.04342416510979879
0.1569256947367003
0.5819119856477866
0.4947876709365113
-0.1732070697577378
-1.081060235676689
-0.4570148956723686
-0.03603891063808434
0.6212212401959922
0.221269594868596
-0.06323952374129276
0.3979474866333473
-0.8676376323658649
-1.32717035849314
0.1709793364071848
0.1941214149259566
-0.3167564732641228
-0.06322574980278238
0.1022634869258337
-0.05174376497014682
-0.08120292858851193
0.05360986352539274
0.7007007269765703
0.5634705336852019
-0.3698582558219372
-0.6514118962733233
-0.2404280759798169
0.6313803464494659
0.7915886751740413
-0.3851459237175124
0.07199801944584183
1.526825653283783
0.8780267674121685
-0.7329492653236128
0.2714853534256561
-0.1942453998051792
-0.4673640340758203
-0.1029443416414666
0.001751161504960464
-0.01124979196417114
0.09454584669679611
0.1680356531945937
0.4127056141939898
0.2204274177981334
-0.4910029512972579
-0.3676260544652405
-0.4699847621344416
-0.3199027733871816
-0.4484196127436337
-0.09489225585830803
0.1605994415939766
0.8827295858957631
0.4064816638498647
-0.2547681499822951
-0.09391581855327839
-0.5047489206529622
-0.5426696647121879
-0.2876200456027167
-0.02453245935089641
-0.04283323565592675
0.00694441910742925
0.0252929965912857
-0.05393780964966687
0.02057301526900226
-0.06048874655821092
-0.2006122888940635
-0.9463322430069245
-0.8716331628402492
0.1325120659170942
0.2916432351304465
0.5674894681922467
0.7057990623395607
0.04046203938946871
0.1365877047000552
-0.563014001789256
-0.5656435163742163
-0.1615284292188003
-0.364634000003131
-0.1937788171192357
-0.01053251833353704
0.01064162309335303
-0.3520386234812134
-0.6622223740934333
0.3545558845509906
0.02084805700192351
-0.284201425408096
0.04332531934113479
0.05199221750819737
-0.3668519763288685
0.5312721618619888
1.607879657135523
1.877126672992768
0.4597558429509486
-0.01606715987807437
0.1818266867470497
-0.07267261184185296
0.09043850809283298
-1.059451800817774
-0.1535395191430088
-0.09799233639949594
0.1191534026162958
-0.1763605761797065
-0.3135128059740097
0.709818367426215
-0.8778295029443951
-0.8732569220952719
-1.163798639246665
-0.7434643395889498
0.3258596274758377
0.7070744833139179
1.553798903187324
1.117020590862642
0.3243878983599842
0.3202221057210146
-0.8738105056584372
-0.6451977520580688
-0.4753175147126648
-0.7858242118900594
-0.03500343880286586
0.008481310988820778
0.04862156168342094
-0.157827344890937
0.2140103077029368
0.5953151110530662
-0.4527043817940478
-0.3403144214828034
-0.8496770100729136
0.741335237955829
1.132917452794809
0.3361658486284464
1.252036441981902
0.1002843785027444
0.3523179406874152
0.4637992275855454
-0.2713724628910099
0.0243218148251861
-0.2210455150274554
-0.6453627528969185
-0.05816852301956912
0.06191660699820176
0.2649284275317481
0.04728890297758787
0.2978180153524611
0.4339642106300874
-0.3408399685470032
-0.308430013591929
-0.700466888693848
-0.3845301722776452
0.3261464975733412
-0.3029822923296522
0.0327798232587154
0.09208108562624712
0.1916592776444599
0.3735630015354832
0.9184344390057307
0.3915804260976449
0.6499255700562594
0.178970614923053
0.04510166215126827
0.04922636268613936
0.01133327734393255
0.1911163155977427
-0.3461409715231744
0.302565821184265
0.2335237130296296
-0.3771321633057391
-0.8929961356342578
-0.7965830498883884
0.3679895251989638
0.040149528939212
-0.5382371735481795
-0.05918780044524351
0.09552395455024547
1.003786937651677
0.3409992768244687
0.2581991670493938
0.4739438742896918
-0.1630688556267849
0.08931240763007477
-0.003884164839235423
0.1596846839037386
-0.007696566107316363
0.1515513879860789
0.508462175795814
0.333077522827143
-0.1590745746633187
0.3865305654542791
0.5232666780135502
0.8282197209351778
0.2529763158957244
-0.8914761015910069
-0.4587633280378599
-0.2049467717480916
0.3837039400075097
-0.1090701444214618
0.3007182657746839
0.2837259700357628
0.119250753024526
-0.05000050874584943
-0.02209902464407985
0.05607973816619628
-0.09834710708200382
0.2022265223351305
0.002110436758601979
-0.0195145774020737
-0.2417530916892256
0.2468719657572593
-0.08503943670117112
-0.3971902879219923
0.07785473621158263
0.4088665098160619
-0.414927015879983
-0.6840931990176085
0.04148682238207756
-0.3340926319843837
0.3073043366295944
-0.008308855520915174
-0.1090045342401363
-0.1853720718807818
-0.004397936255447176
0.01251715128371958
-0.05845822262459715
-0.008702322661266493
-0.02224780850966025
0.1428201102624646
-0.3976563041372173
-0.4979577811666098
-0.3968465909309343
-0.3269314929755502
0.04944795309221044
0.6598351886466521
0.2178966413412079
0.4295532411619133
0.2735449161559796
-0.01263834092424622
0.3619644302738619
0.1917235219852974
0.08384185388448041
-0.005343185183659602
0.04018515490563922
0.04899879390420524
-0.0229923154582434
-0.1073886958934916
-0.2296501789201759
-0.533743932492553
-0.9335392403088399
-0.2335030199458244
0.08399441508731144
0.2582345231710808
-0.3080345440124318
-0.4590643236700001
-0.1789953019845388
0.06182757530011854
0.1023787908882565
0.1645881339897322
0.08504605641194658
0.1094329882588466
0.0504601388680595
0.1021729975544036
-0.02180189856240149
-0.1023290682405524
-0.03317955563846509
-0.1105042259910814
0.002398449150964497
-0.2819457603628112
-0.5198633400981358
-0.2629757998434636
-0.1804157037770476
0.00782273856917251
-0.1071777808360558
-0.1381983260932054
-0.03804138715994172
-0.1499759858711515
0.06261387571936441
0.003796658108092298
0.01722637970866878
-0.07211642930026033
-0.09869296943419753
-0.01125446986117795
-0.02514863119388681
-0.09010987520076737
0.05509716375332794
-0.09827927175500505
-0.01212674654418645
0.07478679501914276
-0.0932870225907558
-0.10899826296375
0.01626036904600516
-0.1018118090737937
-0.001787986364349146
-0.01971079361666477
-0.006307082756374574
0.09799256051774752
-0.003200088156327528
0.006088972544071191
0.08714457052403438
-0.03511245660521098
-0.03261323063733166
0.07515084735292181
0.8779777586506464
0.02932170323275595
0.01732876350267507
-0.09906316843531335
-0.0599303081560349
0.07459955433427583
0.06976279731397991
0.06421603216138171
0.07215863889142561
-0.100167350650116
-0.009191339777803247
0.05902477482922186
-0.08614339441051361
0.006521096655378799
-0.0120532967816756
-0.02025188886915453
0.08804731050308937
0.04169231516196022
0.09494563204501913
0.03931035426495223
-0.05756927657524843
0.03815436772890138
-0.05019083897406434
-0.01523275107660205
-0.06465837697798422
-0.05887993651172779
0.05774764753502298
0.007541729877685094
0.04843301257704009
0.02225758575736633
-0.007326720144858815
0.09677017965506857
-0.06881422825876435
0.052863991351038
0.005546857181709183
-0.003749974511271878
-0.02829824751403275
0.03575205579468855
-0.06098317727434219
0.06808605193986317
0.02434367897276785
0.08343523637857179
0.09555554647922668
0.002796656091739555
0.00443907595039987
0.04199933929507769
0.2004644799265627
0.1914369899241131
0.6464716387271053
0.9394085402627816
0.401273241745892
0.05464272775992297
0.0884688171811618
0.1414862508688144
0.3700281283989495
0.09454167845094416
0.1070460991754684
-0.005070525489552811
0.1196630460414165
-0.06508030993591792
0.08514855296488895
0.0368501833619003
0.02795843894188089
0.03798258441901
0.1797040221395474
0.3965742213459605
0.5831610170519763
0.7687500865863122
0.4653104850884155
0.08476220293160261
0.3542909001638186
0.2733068629705491
0.4159538327852428
0.7467004622992008
0.1890420168039118
-0.3336094246792177
-0.1575515206651159
0.1499336416710297
0.3673317115822961
0.05706816086871574
0.02913851022842244
-0.0623387236654034
-0.0670627406118289
0.07204843314170115
0.2528224206897612
0.7318329682007733
0.7574353080374671
0.4922095190162734
-0.3266238592180227
-0.9273435047507234
-0.5798587950829746
-0.008079788863899425
0.2207754384449302
-0.6186529955398082
-1.099881930054481
-0.6042990603973522
-0.6651305593523403
-0.1486613389963642
0.7101755612280052
0.3093876245021946
0.1080167961189957
-0.08938008478874203
0.007427037130863862
0.04893777977011476
0.3899723110684944
0.2672769423425758
0.1075994709842129
0.8328040172922339
0.7612927381161095
0.520087158652109
-0.7962960609411087
-1.06923308267817
-0.1033385092813973
-0.6785003404234849
-1.195596631713321
-0.8172520137339765
-0.5245135865997456
0.3673589958764488
0.9677336277257695
0.5383057016452353
0.104000824698953
-0.1041245100125995
0.1056033891077477
-0.1873682557309642
-0.05346893236713317
0.5282599835422853
0.2767908419742508
0.4421415846950345
0.7048922285958702
0.7228663392999224
-0.2086916233774052
-0.3995108382889966
0.01292748663172767
-0.7759643930132674
-1.026185416248962
-0.8119130494057095
0.2795715444433417
0.8602244934653809
0.7536647426072939
0.9091692058860942
-0.00560078750909926
-0.08710946144148264
0.0110235883744935
-0.2734526667119665
-0.006330297655247907
0.8838997481381315
0.1196101638325212
0.01029766627359076
-1.341231547246151
-1.160559998310234
-0.2012388016366916
-0.5051297908358878
-0.01946347932807434
-0.7491902492115573
-1.186045060524029
-0.6184883420651452
0.4601612473355563
0.4137989033025503
0.1992252612640275
0.7266439314620797
0.07764073508396567
0.09276966262390295
0.08339764021440911
-0.2369354910744449
0.03401727011878196
-0.4298372909384744
-0.07322567494056616
0.1788152082009534
-0.3608760801405128
-0.172103101507445
-0.3748191562995684
-0.8155171165003436
-0.3997938716633609
-0.5070714963243758
-1.625733059762264
-0.4622202321839839
1.061621003805153
0.5462602597798634
0.398225139499872
0.3418219974753882
-0.1411039900934086
0.09807774100527779
0.05988257767881006
-0.04926924237344788
0.2371477805776042
-1.021431574944843
0.8099309095837605
0.07707632890687036
-0.08548488178253333
0.07259906471606081
0.5755614146481685
-0.3308890697174579
-1.05470768664481
-0.4403120071841655
-0.4247644688785852
0.1332298140639697
-0.08591034724172754
0.4146890456592557
0.4722680339274985
0.3015110859738225
0.176667064912869
-0.04896246119545009
-0.09947095390388121
-0.01957967610070678
-0.3549548201802347
-0.2643086955164514
1.007582586481123
0.02286200694127471
0.1736135572190723
0.5923579367507616
-0.3749512134741075
-0.4779477001700188
-0.3167134493356216
-0.06595119281852596
-0.1201502175024393
0.4951297512806277
1.150886622982352
0.8320507730393001
-0.6353117569242492
0.4381087682418358
0.07141713236583297
-0.05997038589511875
-0.1205683263646252
0.2189264111583306
0.4108132176306454
0.3517085638236712
0.6923892389533453
1.206792971801115
1.163449925721043
0.3740911192727741
-0.9399984007452713
-0.3462716753160898
-0.8651468127232121
-1.370033536869475
-1.082753227607245
0.6346374005435033
0.7235573826361061
0.9163153094937886
-0.739689237370761
0.8426894107324868
-0.0277023416870985
0.09852390668636832
-0.01281384529754496
0.2532743064819309
0.08763815112309396
-0.8557939090202039
0.08830233201284146
-0.1135339313410735
-0.2484912809037963
-0.05849658278406904
0.4841410007933832
0.06051395963827601
-0.194657356715969
-0.8223658042333557
-0.5629607640737314
-0.2933623485872122
-0.3630923723826556
0.04526404383210073
-0.3324384448320726
0.4248533807150793
0.1092782931894566
0.08672561427042358
-0.05046975223487248
0.0128834422222318
0.6848970195763298
0.2463018549427487
0.6671601005675752
-0.5350215045565087
-0.0588059822188176
0.8033910337972437
-0.2063172695148917
-0.4489589833140069
-0.07901386280154367
0.2758217112225071
0.1384365291098246
-0.2832144799498576
-0.2452792616126225
0.06520454614117906
0.1813738681658964
0.4764038462624194
0.00219220105442344
-0.09620324644637616
-0.01777155720691447
-0.05226219992429485
0.1723818699918147
0.1467962418098946
0.2158023991985524
-0.03098253544450336
0.201911325648084
-0.2193774558062913
-0.4300512647894494
0.4869300060207111
0.4185743197433428
-0.5439490901285442
-0.4074223504159201
0.1088764853059666
-0.4455573503665102
-0.3043072282214494
-0.004728958104636151
0.08934402415351575
0.0888082740380042
0.07577959493415308
-0.005804996141211246
-0.01575666224642408
-0.07862803354775302
-0.1453138254975658
0.03484729612539147
0.459596467720627
-0.200025858766849
-0.3606340128837506
0.2893814802555428
0.3067085900120431
-0.1987011630339733
-0.6634826755581081
-0.2565812565531739
-0.1638647844035457
0.08679527636598545
0.1024954722366589
0.1894001562769733
0.1402125951153718
0.335690151400843
-0.009580324454071613
0.05164548221894586
-0.065767617917401
0.11565561184193
0.1793494860469876
-0.3536717809661019
-0.4382563888677886
-0.233809360127687
-0.3624384063130788
-0.1238532772049393
-0.3604953803900991
-0.1147027387243185
-0.1144693006962607
-0.0495220334273152
0.3743352027486876
0.3635186482458498
0.008167150656006981
-0.1354581668702333
0.1500394912606126
0.1346824395650457
0.05805243221054306
0.0215746177427607
-0.06207455255003801
0.03453964650282926
-0.08531762472681013
-0.3103250986530219
-0.5272991942005683
-0.3662142558164616
-0.3049164807181329
-0.5522536687366207
-0.4319285607576548
-0.007089905508940402
0.04441888946948193
0.001356401364185203
0.1903765863438243
0.1430511031540017
-0.001154649353478199
0.02189569918326634
-0.040582422852175
-0.1071055036964992
-0.08090765123704065
0.0752988133675066
0.06440470360771262
-0.03302126517020922
-0.170969968416647
0.01124304326529854
0.07305310757463468
0.0928603308525046
0.008123893866246496
-0.004501374069620068
0.1330505157754822
-0.01637449984420125
0.09050846003027449
-0.04208681156044677
0.05982686327133584
0.07329588504771585
-0.09689830673931482
0.03779674629302434
-0.04991346670208415
-0.01017628860622803
0.0119902251551903
0.01317382813133335
-0.07809262672147399
0.04493270976330503
-0.09167806597954933
0.09753169218341946
-0.0868469079592484
0.04594347560823895
0.03818331788166703
-0.07724854148621653
0.09651982935821092
0.08586741380000605
0.06521687522797218
0.08466443190757621
0.03258430646261509
0.05723353767601387
0.02422587694125303
-0.04053688012934109
-0.05407852818766083
0.02503270621909585
-0.08935592479001425
0.03672560341601411
-0.05759518345143995
-0.09076538636909956
-0.06380301469443264
-0.03125386749294942
0.07539455448124216
0.04724053578074357
0.03048247080651079
0.04085948104488786
-0.01637266616790248
-0.0964253368142467
-0.07775992372925408
0.08402702178988025
0.02004643987293526
0.1224002947052263
0.06132825080584237
0.09900175886275543
0.0220483333679708
-0.06472005539578814
0.01021467208769539
0.1057437565176921
-0.05082061230282073
-0.09820571073365834
-0.02473132067595
-0.07865610728249472
-0.08918207546979151
-0.02689674738669896
-0.107047275611848
0.03411050199630487
-0.1169010984928396
0.04975248151965758
-0.005060324917903108
0.07082594733044617
-0.3017137735304685
-0.3403444913506655
-0.04120306687358578
0.0004288834063239153
0.08183274325369798
-0.01979290227017775
0.05551865585340152
-0.03535952209925602
-0.0250161251375288
0.1001547058933661
0.03267434666401262
0.04575377273878777
0.08196544718867088
0.1879706706657332
0.05282417574219116
0.07559435317801064
0.094359481353447
0.09182823686355117
-0.239395439586774
0.0188622365438816
-0.1051517315620048
-0.3388211541894086
0.3412928119540888
0.2012668058497186
0.1972164216888981
-0.07669716362928225
0.1013621214867105
0.04646332661474475
-0.04665405431490637
-0.06980587444705805
0.1119896786165447
0.2712170785198117
0.5803130130209353
0.5930827253129457
-0.08869775085721483
-0.04934652966753267
-0.0004713023894914493
-0.112005860892908
-0.3498685418398771
0.1324866277245259
1.232532792456553
0.5939043558919321
0.363798642110588
0.4025269002215908
0.06901607440311813
-0.05330545193326421
0.08994806864609152
-0.09183738716508612
0.07026682408140242
-0.05348212952994477
0.05593016299731454
0.09287887580973379
-0.004228388409264466
-0.006077295948814918
-0.8735922030459601
-1.452250025059402
-0.7707191847593066
0.01067304353976144
0.2364118157211516
0.7561544069246173
1.184130777730182
1.02036349036497
0.2240714802085722
0.09091400698272077
-0.05911863494852088
-0.04027255919166915
-0.1076849594549958
0.06685107859408632
0.03309764484062016
-0.01335474668576118
0.2220431951467194
-0.1748450161095479
0.05638076815661237
0.337334699222968
-0.5918706954095017
-1.322373110882836
-0.7555990821204891
0.6076517713470476
1.890538959242568
0.7708118824409561
0.5906071479243258
0.8074064393914222
-0.1362027916837063
-0.1885949748644598
0.01268563512069732
0.04178217675384689
0.02041601525714757
0.1022278857813481
-0.1340942659861955
-0.3155784729253298
0.09696883157244802
0.06219848122827577
-0.06719426932891703
-0.5623567223717751
-1.231068772943255
-1.601390175187854
-0.2127501155965165
0.7651265637724487
0.4691709712262756
-0.5191424315057033
-1.16054927916817
-0.05904075513255136
0.2757284547628307
0.05115392361389397
-0.352790923622911
0.2872507139515414
-0.1376975133052471
-0.06288227569909696
-0.1718401969475391
-0.1664724471854413
0.07462093393427682
1.254706778710097
0.242625174019071
0.2444251652156924
-1.037538891632887
-1.600213131338876
0.8403487033712405
0.9783937173463424
-0.03871679940927018
-0.4147132726108387
-0.5288716378536003
-0.06525806350870618
0.6868154851345327
-0.0768580304467827
-0.3987438913705
0.2574560473017001
-0.1456319600332416
-0.04755549098446141
0.08119667845417654
-0.1735621277429557
-0.3814350411098544
0.1751134304361792
0.07081429944000231
0.2566121195674779
-0.7740115227454329
-1.038824338146434
-0.08027413905558432
0.9103457559545884
0.2233565633680389
0.1537848320466817
-0.3367478633123222
-0.8696421689365922
-0.7296711647506362
-0.8614209701960697
-0.5300434969899768
-0.2458007767520063
-0.0267260446491061
0.03619648565521468
-0.06987245518242768
-0.09014947743884276
0.2845810635524042
-0.06530748265822041
-0.1676356154318411
0.05989584152672663
-0.5298794440272436
-1.296523696787919
-0.2450771246889142
0.7839840277761627
-0.001058922458246621
0.2754856839046325
-0.8779630384199935
-0.3875753107835248
-1.136110414635131
-0.2156575435944544
-0.1599110392012172
-0.5908093664656043
-0.1024705304626338
-0.008767601968579746
-0.06251702897571494
-0.0922954583930608
0.2219925129446915
-0.1454519545953815
0.1681521895687264
-1.469816884628454
-0.08908295869540964
0.02396769461577818
-1.572290430351301
-0.3182762148718161
-0.09640074942841692
-0.07402035468214556
0.131047687033469
1.122670439916485
0.2431132091563795
-0.05298844312237055
-0.7444241319336421
-0.9579298284086463
-0.09028864746235522
-0.01439588438241248
0.1542521220290503
0.3047359535215231
0.73773264088381
-0.1237744757433304
-0.1970339823782968
0.07314399083107491
0.4569774767557743
-0.3856017772775401
-0.5643204148746086
-0.2321692476473735
-0.4153248798090131
0.748935805895924
0.8438886848113542
0.2562894411925785
0.03882084323031413
1.137213523600354
-0.0817669959407238
-0.4664370012841788
-0.1587649379792838
-0.09803299286490851
-0.09978401266176087
0.01134849202043431
0.4504526814169841
0.02140664652781831
0.4324920282725209
1.136597500714444
0.3701586968673463
-0.4049821501472129
0.1723322163047571
-0.7081421829158632
-0.7939344028536891
0.4023873340940354
-0.4430998458018443
-0.8338373689787379
0.3677901680162496
1.838305191159371
-0.02339617923529162
-0.5117677650047961
-0.1755369777166763
-0.06912544174880059
-0.1695100774022431
-0.4790558967823558
0.3620168065039877
0.612858446953826
1.106137237454449
0.340709562148194
0.2867056729139973
0.3122762266977749
-1.07387793264127
-0.7597687174014266
0.2414577072362171
1.807072441463819
0.5288252120314437
0.2863649115351444
-0.263926603402508
-0.128448522078704
-0.02564823930812477
-0.3876734003889734
0.04365258514297439
-0.01346099619468131
-0.2464212046271066
-0.6189728211151173
0.07154361612814129
0.3121769565377681
0.6467799894583319
0.2088520320070785
0.1580479964720456
-0.2011187023242078
0.2202822091301068
0.1427115358647059
-0.1715049472077521
-0.4481571426777793
-0.715558295300144
-0.05339879782763485
-0.2516052816859101
-0.2924664105230159
-0.03150791430200085
-0.3615521650125849
-0.04976268762136873
-0.06536073897687783
-0.212364718666936
-0.3632125908444284
0.184290869706951
0.2191956404683071
0.4688883290524506
-0.2103080432267323
-0.03289459318746465
-1.061761051324097
0.1137403904840854
0.2572715573432098
-0.262434791641427
-0.0993070810602574
0.5958548203385562
0.3622031194870153
0.4466738455901586
0.2661525990056638
-0.009175065350033301
-0.1541443989114923
-0.05469435694788113
-0.1007506429660952
-0.1240587818434873
0.03199756679223859
0.3188543991897047
0.1971960315490475
0.1646961704619154
-0.9350538005142026
0.1667019025306699
-0.01380415133049783
0.7117005922648428
0.1969555479380999
0.3415754797766307
0.4863070076760014
0.4324797242878365
0.1047212811521494
0.1311377128006533
0.2034473066589756
0.06577432393294447
0.01229662095892426
0.08452611091564677
-0.09917533974616137
-0.05059911007259128
0.08243401727436886
0.01165270195434188
-0.161321305512116
-0.6016596975624328
-1.435688196745996
-0.5400295937456637
0.02975499278378416
0.2793217436051433
-0.005357405886802421
0.6040593806413268
0.5683337615968531
0.3634419741679308
0.05614143375471375
-0.1670252884287176
2.66780201357045e-05
-0.0328773841681472
-0.04890317933214763
0.06144061259939274
0.03043421881315276
0.0110893732243018
0.04516166251535596
-0.01707101210629606
-0.1343177445125404
-0.2709662785298642
-0.614981133374042
-0.146525895856356
0.29943108804717
0.2124417172561651
0.004325398759028549
0.3966319742510893
0.3639734862148568
0.03652827405068068
0.04399838067786437
0.0975896581929635
0.05431458343427344
0.06858254673482758
-0.0466983628810636
0.09793151448491494
-0.05929155353397869
-0.05559730649395948
0.0199623171168558
-0.08260629744685861
-0.02683552431939083
-0.07621798050443084
-0.0579761168059948
-0.09245460360816413
-0.04497919219292246
0.1010073699763409
0.1271562495009411
0.141204023924271
0.1656256149274057
0.01111373719636474
0.01923865169090651
0.09572755343688445
-0.04277402113635415
0.01181798968348611
-0.07275013647228042
-0.04720689598599467
-2.36519566771967
-0.06336960793524202
0.001054398817881987
-0.003476108458365766
0.07962815997622312
-0.07804123362844034
-0.07632929414846192
-0.02885913137734225
0.02910216986852061
-0.103816301099992
0.001384000883031061
-0.03575185897253468
0.1049310953043238
-0.01830361460419532
-0.07792016332075716
-0.05249784099280592
-0.03083738430756577
-0.02900146284421247
-0.08023898494679055
0.09155167150638345
0.005976553512091937
0.03415696991119851
0.06633731177874735
-0.00534902347077956
-0.09323828518420554
-0.02626957013879684
-0.007085455850278363
0.06591876652874644
0.09438527813258306
0.2174811966740248
-0.0009010063779164503
-0.03247214983964443
-0.01437121464701944
-0.09033973391671564
-0.03841936076046742
-0.03429709396860897
0.0564680102511646
-0.06209511628247914
-0.07259769519774965
0.02925808024414422
-0.08318277291065876
-0.1003638255352622
-0.06876640826986945
0.09474988665145785
-0.01690262164496917
0.1502249755225953
0.1768018737344221
0.3814229040318805
0.3878338985188261
0.4015465049971645
0.003483569958911371
0.01609095064747651
0.02102736642404017
0.02279839768520379
-0.0005265589514668275
-0.1946499622067475
-0.1366308419219965
0.1140341209999455
0.0452537365261901
-0.09966855428960748
-0.1101816527258598
-0.03776969640444168
-0.0358323970777912
-0.02492890722516479
0.1426021226199096
0.4437089043670375
0.8938977415645457
0.7393094601605246
0.3063527646598561
0.113422590244076
-0.5617507108367991
-0.7880734651968603
-0.553522045218501
0.3066526648035346
0.6703499390059733
0.7057665346571738
0.1991336464393798
-0.1636134474888833
-0.05862262611544188
-0.005324562155722671
-0.02552799305548616
0.06745943831095891
0.06624843433541548
-0.09141647571548965
0.2114797687799333
0.3988264582703591
0.4121133933599035
0.2723335059159542
-0.499136731123686
-1.31860655762861
-1.116303491298824
-0.8634313020343075
-1.031458610814
-0.5432941137972099
0.4543069406374061
1.220124503956119
1.146808941732461
0.3304807842381963
-0.1310684774547792
0.06508008205032574
-0.04890688589230907
0.08440698254991659
-0.08610181868142791
-0.1165707960866009
0.6139115708049945
0.7369589830313769
0.8150713654153996
0.6565876360540744
0.2631805369724826
-0.3226130660787215
-2.172875359271358
-1.153402609684972
-0.7154399538196082
-0.7971944996156857
0.2365698009501343
0.6903388351533259
-0.2064228258976168
0.2737034652481812
0.8771637030348499
0.3111436054968924
-0.1150387703749323
-0.0921306653060505
0.02645682677200751
0.2187317826025454
0.5195824216614227
-0.1122394799726576
0.7155221203512279
0.3834685675144022
0.5448448155566078
-0.2570316436317386
-1.298985561977754
-1.031293755263297
-0.8971704772125118
-0.2762600726409332
0.463609735287677
1.15105013084492
0.3487564408069311
-0.3429262771014234
0.192062708384669
0.0454976101989301
-0.2096489230333792
-0.0613509072453095
-0.08384818882211063
0.2966779137405434
0.2026408062278973
-0.1094779311379079
0.8803247223127627
0.6764382575608028
-0.2199952506418307
-0.6333058671844511
-0.9816294273006132
-0.6303080579768409
-0.5824542126334172
0.688822743810976
-0.1687282300680266
0.4325408153713407
0.1586247582317611
0.1363226463784581
-0.4644509719220821
0.1404184527534538
0.2722647470040047
-0.02612868457620889
0.113900508783948
0.459799252937142
0.2673273563525042
0.4980729602008681
1.044431044123096
0.5086922217945823
0.6611021177353694
0.626465957723502
-1.305008050732146
-0.5050237841579052
0.2633978106894954
0.3673557177432172
0.03926785294174607
0.3550690243872467
0.551061748310855
1.101194035472101
0.4419916617336637
0.1477248817910677
0.1307518980366054
-0.01750353412664333
0.08015331962632281
0.8016418652091148
0.9948499161573771
0.5046411603925458
-0.02566598526070431
0.4288184039868873
1.00397138221734
-0.3529198278418526
-1.460429605398803
-0.06283429990067503
-0.9555231609214292
0.150076323163633
-0.6282713588939113
0.4514205817379163
-0.5307120279774804
1.166944718844025
0.1943331074668001
-0.3141777905006193
0.1359275155599148
0.07300538035656147
0.1381032836447108
0.1680445804297369
0.8318636648143352
0.08641406848633706
0.792074419644866
1.334663145504488
0.3539020770756444
-0.2266760823774872
-0.7487907920801682
-0.1671676418073457
-1.138975581443489
0.1161413981726525
-0.5383542942936076
0.1513717441762043
-0.04626649095574524
1.099577591914082
0.8198217371318985
-0.1779779704028721
-0.03554328255028323
0.08624470556800969
0.119982274152949
0.06620306097660335
0.338555173183413
0.2031312593814336
0.3319703183238515
0.8231693381664902
1.388803990599006
-0.521765197210967
-0.466850775543025
-0.8639184106580796
-0.8624153487575794
-0.2764498052825252
-0.4846392245145673
0.4600283800024834
0.1572084440279077
0.3642546647338947
0.9365404803018644
0.4695063706009961
0.1489593009433217
-0.05141515230970148
-0.1335682020482614
0.3693754158704119
0.008643939910287052
-0.05091332039244469
-0.1099383913423356
-0.3631198840269251
1.443354921393009
0.1543339082626408
0.1156260511034395
-0.2774854358667787
0.2455365737002386
-0.2472499461737692
-0.5029081484189427
0.1290319178774733
0.04394935204280332
-0.387096161251344
0.2154396050710186
0.6672925326327266
0.1202040259330191
-0.07556729497702586
-0.1007611331753779
0.1291646545740189
0.2795652180894038
-0.4509431964937473
0.1081748133331011
0.5322054967054483
0.6499391573095276
0.982130646514094
-0.4520082556186837
-1.04794528210078
-0.3369305585416809
0.3480228898328267
-0.03847339950085083
0.158701895540327
-0.1629860770521376
0.04034381086640767
0.1666345975173971
0.507023777360414
0.283397567743266
0.1094531564027315
-0.1454445523148006
-0.03999094444532005
0.5221084882971424
-0.5352682697117596
-1.076634690630507
0.6485713336395947
0.7571368965580343
1.018077558160353
-0.03971781073785512
-0.6568907660899178
-0.1050680233832085
-0.3486379728115557
-0.3113552881234442
0.09658452348937444
-0.2947737189384588
-0.3574415806913366
-0.5021273272857218
-0.1042143699097724
0.1397697457882558
-0.05452778723396069
0.08903076760373209
-0.1480820168457487
0.4662392365678221
0.8721130945109961
-0.09452939315565061
1.003104548747235
0.3026568062210512
0.3927794815066407
0.3715508039972129
-0.07123171049176183
0.06372917207051577
0.4260746463913759
0.9880849361312989
0.6763462028243831
0.2631686307383382
-0.3171114245584107
-0.07876926886193783
-0.224004457132739
0.03325283334873162
-0.04036838773201045
0.06576478724564652
0.1518233664108593
0.09595899511665808
-0.05292179913310854
0.07160924567238625
1.281507086421509
1.352891720154376
1.081629236552529
0.6374224131881883
-0.1499773778252624
0.2922351423476676
0.3777642003844759
0.6160792725871382
-0.2910760390652939
-0.5404452356132574
-0.2150645727772261
0.04775410044694325
-0.1666214146037831
0.01873987484200951
0.07611053547645853
0.08920548150024314
0.030754547797358
0.09925271272922549
-0.3870687753337132
-0.2447012450733546
0.4783365824883525
0.4481423991278205
0.1844217683541718
0.01206049225679232
0.04170281720885123
0.2310856497905935
0.2571934327988306
0.2215927503012624
-0.4500428652700611
-0.5778270229141108
-0.212400261744927
-0.08347811499458024
-0.1297183134140397
0.07180706061477105
-0.007137194173008518
-0.05328413066817008
0.04743690565440076
-0.1448443981988782
-0.1285990366752137
-0.1653620710594226
-0.03575111277699905
-0.1755539836351009
-0.01232534004378173
-0.09359822909740274
0.01775099631275463
0.0338445724875531
0.0161005454620541
0.03069576433808935
-0.05004105910903863
0.1168917902733717
0.02813110728961225
0.04865360592219794
-0.06358959389412085
0.02802984680051769
-0.05799600916198877
-0.04570256864953093
-0.01062389586082628
0.04062307517573129
-0.110001626731399
-0.0741207687248614
0.07694376140436808
-0.01050149864355951
-0.03188646854749748
-0.03714830199949308
0.06366280557769215
0.01311189892666568
0.1366890051681478
0.08295396760963288
-0.01173013285985719
0.08534595351548184
-0.09151345821136525
-0.09015095970257425
-0.05289846296253839
0.07304750465719954
0.5650875876716446
-0.02837048399471376
0.08723361548242435
0.04504468398819574
0.02216173758396161
-0.02957158112024414
0.0541516918535527
0.07840152676610848
0.1050924714632774
0.008210401177575103
0.09117921009411017
-0.02446820718658483
-0.002258972657461659
0.07035823468005196
0.04589013849437477
-0.0390108550934539
-0.07709709593478152
0.003738244977845434
0.100112646964502
0.01949550186890156
-0.001488332775722829
0.08947365405818138
0.04881246069165597
-0.04097387135417673
0.03717366242152176
-0.004301562376792746
-0.07713710317217533
0.04422167797391106
0.1089498060503122
-0.0001976826432664688
-0.04366589383238175
0.03152917020612696
-0.04265647070078052
-0.04481737519064183
-0.03941374247094741
0.00424315730348215
0.04635392095100596
-0.02691958306839336
0.04013797621504491
-0.006223551530819277
0.009357001741428563
0.02529225869102209
-0.08902948986911408
-0.002440801611438122
-0.09240312980959842
0.04456956770518147
-0.03997466302581838
0.1789259640703747
0.3503719525938866
0.5423790401699389
0.3181289433772319
0.1530923626479331
0.03943124534077019
0.08750065157706
-0.1004726038988905
-0.09660267441889545
-0.02833815538461514
0.07229891947319338
0.004397975841620078
-0.01343816364665844
0.01416213190576559
-0.06986443707024333
0.09415683193689661
0.07522351195122232
0.01564953345814322
0.1173683820652096
0.4442319960505258
0.1341489149199478
0.0898172519627824
0.1532563264444271
0.6386200319626032
0.7019933513244412
0.3715788187125172
0.1966201424929838
-0.4814282065064451
-0.3510393542672506
0.1692604992380713
-0.2965725588182676
-0.5286754963380588
-0.09236500241022372
-0.0949820624529476
-0.01825552465057711
-0.0531668868765086
0.009703921510933843
0.1587568908942762
0.3066961245903173
0.7645247826979433
0.4554536846126986
-0.3842290791162113
-0.02337677764228488
0.3070580048431524
0.128674243914743
0.3401286979753171
0.1351548883017879
-1.419215102031281
-0.9089768352557344
0.5080233905074213
0.2830239390425945
-0.3358423208080266
0.03902396041440743
-0.004136043797370216
-0.04969986765119973
0.00426370097591359
0.1271518996626141
0.2011635329234052
0.2972920119770843
0.3875996331993032
0.3381193153789544
0.06522781276684278
0.7318644451313181
-0.6422592448365912
-0.09249624868985797
1.247423486605719
0.9011786305154872
-0.7377097052907675
-0.9879956172279677
0.2758829514158097
0.8508385228713601
-0.3634867142045531
0.1679768077788286
-0.0192026049056929
0.0206048301868818
-0.02172108400514632
-0.03276094585533596
0.3373139073979389
0.4704664443971167
-0.04179717937729335
0.2015399614577376
0.05977682444276064
0.03737170331652573
-0.5438095524337042
-0.2181145455364527
0.3606847604291561
0.4374593725860678
1.037653995834325
-0.01874017027912609
0.2851972438482667
0.5301428786867619
-1.252249537715886
-0.02693523002361298
0.05583563797481111
0.03882106267477026
0.00347367257733768
-0.0338045048121192
0.2441353174515212
0.1775925450132448
0.3631931503485821
0.4650181649582018
-0.6661193172202757
-0.3281826183775482
-0.1687406306732086
-0.5997480114960557
-0.5926044283646267
-0.727916416398204
1.276251869241518
0.1692260902099797
0.1427105410692923
0.5662928666934148
-0.8753893702018151
-0.1615512526845045
0.403782008339424
0.0008603916434270207
0.1476220718096691
-0.3027181737305463
0.09090209186868646
-0.457889461818986
0.2540828839977048
0.2450354918394286
0.1495572741198706
-0.366610093200685
-1.179928969610835
-0.8865866784319913
0.03814951737227977
-0.543336924061555
1.167067185701991
0.7763800301050469
0.3109050741605335
-0.03379882209543811
-0.3885176162396717
0.157976164243548
0.6268858925875007
-0.05052366242192662
0.06085368155234294
-0.5242959694805428
0.4471372519315762
-1.013644014168213
-0.7578882425174016
-0.59099050813735
0.03242492357975107
-1.643279381099767
-1.598782575233176
-0.7415681283108042
-0.03471710496226316
-0.2795784656519654
0.5494654155370492
1.465590210646419
-0.2100736773347115
0.05690674823303164
-0.1714574606548991
-0.01323526394871305
0.278158787370305
-0.004996399161244284
0.1501443568417752
-0.05846903877235925
-0.3187161689414694
-1.398653277382998
-0.9292933528134586
-0.6581539045325109
-0.6128319754382239
-1.102233594532128
-1.495197614595171
-0.5184701200401389
0.5612259995735615
0.2889378710599271
0.7076643367173602
0.7615904777928204
-0.08841448514438231
0.3154439119807789
0.6950189595581074
0.3472310836196127
-0.07766948816141828
0.0519761290037339
-0.01149053591911548
0.04957189070000951
-0.2836134750226963
-0.2037926454214455
-0.1095980317216113
0.09001817933666117
1.524722328499728
0.6211463516772671
-0.3473711293338138
-0.6463160570937171
-0.8392947490116968
-0.9749012991599788
-0.2929603003254606
-0.09219817819176242
-1.074997218264527
-0.2988169070803086
-0.1067739463212932
0.2808342024716144
0.1647967054203213
0.03968839786639599
0.03786057479235048
-0.2329915334631114
0.06356618667733187
-0.5033176070612476
0.3925772739758239
1.293123662882539
1.442911071049358
-0.1946630011096329
0.1929348154711473
0.4171155581708832
0.3786928523925379
0.3176855830543535
0.8241320286811512
0.2231854370371655
-0.5500024670746173
-0.01721368867272094
-0.5978221212515478
0.04424521902559841
0.1819532816413324
-0.007614488487922852
-0.01766426138767729
-0.1183644166724595
0.2801346979898371
-0.2326150152176293
0.8929753579832767
0.3098764261171063
0.3396329930966471
-0.3607955441949807
-0.6745322518735558
0.3285239899127241
0.8203487516332206
0.8099627074004477
0.4671588647412625
0.2539990429176239
-0.1597880926391372
0.3448868279332105
-0.04429432969537924
-0.04216303216066495
-0.112470827614201
-0.05888654734782332
-0.1083638888118852
0.06730449074699445
0.6628688735924356
0.05749260949321918
-0.7011144634550845
-0.8395660527670938
0.8882046597777704
0.4627143753990929
-0.3299513505409524
0.1264900722265555
0.3337734016773213
-0.1633552991681158
-0.8148972014684247
-0.1207621648606362
-0.280596268568734
-0.4615760130901113
-0.4750443188171278
-0.1102238556684898
0.008613585265348346
0.06438678718783145
0.04890619535994883
-0.07886177844896904
0.5040846606345506
0.3295309857788305
0.3951664934061099
-0.02387221911965465
0.9367095206920552
0.6743642887478828
0.2910764071962664
0.8003252682436438
0.9089450054651366
0.5426617277567056
-0.2003901938068499
-0.412449488189206
0.1673352482842762
0.02723562436297463
-0.215220368167101
0.03631794544250928
0.171598236569087
0.01549969223705417
0.0341970651225325
-0.1669399811440936
0.1124769862988305
0.2301273579926739
-0.2137165572108262
-0.1622092349951719
0.5224361846648015
0.6677243496292536
0.9575310870956801
0.703811647081941
0.4328930355823633
0.4617442792283125
-0.1979171101024934
-0.8324893162303628
-0.2522406244895051
0.1702181612838811
-0.06886253938359528
-0.07498142904159313
-0.02641680626926693
0.07443839174940838
0.05961980746198854
-0.1021217375042738
0.08144519635834208
-0.1488401030066635
-0.7724173870503019
-1.279377507389781
-0.5060302798053972
0.06261183197957798
0.7317684771710702
0.3050494180693776
0.09132435005809485
0.2738450104419225
-0.22208986070591
-0.4944274080598733
-0.01652057379214265
0.1175953327195512
-0.07397385498206573
0.02705774882290739
-0.05880010698693312
-0.0510537131438885
-0.09889235532742528
-0.03383915743740677
-0.03334785855454207
-0.1767623503126781
-0.3456128492117258
-0.7531931744244009
-0.3559160505999227
0.1541152394617296
0.06839819832850774
0.1381334180965727
0.3746454485583959
0.3117219112458742
-0.04713641017820588
-0.01915456506399299
0.07029661501652207
-0.0271050436477954
-0.03567997281284272
-0.06956411115549731
-0.07936106314923429
-0.03300688364754284
0.09412260714781373
0.05730632784984791
-0.04941332965386407
-0.07212276982882186
-0.03616874515132062
-0.1033719300036039
0.006841300219767711
-0.02833618631424134
-0.08070707191929355
0.009016536847286304
0.04957466043940124
-0.008140413195263665
-0.03432218784984575
-0.08638019885483052
-0.09278399151862517
0.02610409182435075
0.09557463839768469
0.06640861711106352
0.08049319343193265
-0.1011418005778508
0.05812329247966062
-0.04095839655651707
-0.0239260081234572
-0.1025501650600969
-0.01254796240968991
-0.06833975244717244
0.09933942910834219
0.0354051607896526
0.004541701093370059
-0.06795884059670798
0.04489734808010917
-0.04549237598964689
0.01095478933135142
-0.02061412528851247
0.01085503423237545
0.03094582193675413
-0.09258506513407344
0.0584060991090263
-0.07640344665222108
0.01599367470482347
-0.08749261536661007
0.03677794614454652
0.05768513262775191
0.02929533709624269
0.06869860870032057
-0.03250662555336054
-0.04686846693958938
-0.09691697323845337
0.09214680620404529
-0.009990207368493922
0.08749641560929067
0.01982980751316099
-0.1475757964034019
0.2401424127224049
0.4356833030103629
0.08369611312813377
0.01139617590227065
0.01334309542555034
-0.04923962752987665
-0.003425859131514171
0.06068072865869967
0.02365370178263597
0.08200433398855803
-0.1136917122475749
-0.1522750242614942
-0.3835248838780272
-0.6677051622351351
-0.1270013501335429
-0.2686702193146187
-0.174244524400911
-0.01506640654584294
0.212968005207401
-0.159508630371817
0.01378572276718614
0.431690627864092
-0.07835854698555204
-0.1066094999028889
-0.1877179933867793
-0.1104195182950241
-0.04604391859385664
0.0006573894700628284
-0.08946944411090962
0.08127947942436987
-0.2319882535244815
-0.2930348772330213
-0.8856446868738198
-0.7333715490957302
-0.1569230890903992
-0.1148394315324334
-0.4347611221905676
-0.2148017209604261
-0.1350544582212616
-0.009708549600460893
-0.1303942204495868
0.2617521290703116
0.6462721445050548
-0.1584185700666318
-0.4162999993179447
-0.009307998634849905
0.08702635488491554
-0.001094437110472072
-0.0961741438592679
0.05252310550951299
-0.6839193300102916
-0.7799107941014255
-0.4048934137624487
-0.4997356557468409
0.1155337304099964
0.4627356523598182
0.06682185020286902
-0.476476304871739
-0.08111748413989611
0.9135738959095643
1.182533495325551
0.1689946114205546
1.091282824768862
0.7200658652287754
-0.4752317777138607
-0.1584262015863684
-0.01375519178820911
-0.07728375533596747
0.1087938268917854
0.02524544274302631
-1.011102442623363
-0.5340585609944399
-0.2717215637870402
-0.04468426974361351
0.6781576192002026
0.4251243549875967
-0.4004516645138174
-0.2467804236507292
0.2098980580460353
0.2729656751080212
0.7151015354948548
-0.1863092883473726
-0.01337056363180778
0.3679793992464978
-0.9999731646242327
-0.6535640482058566
-0.01327678955264103
-0.09381778664862626
0.0782344550297111
0.1252062800452401
-0.4231317937022143
0.153071992407096
0.06884308583500955
0.3725582585500378
0.6523636929080461
-1.041273892915459
-0.1452572829183614
0.2339142329548604
3.50705891745375e-05
-0.3314898983078085
0.4460831550963003
1.523359531473322
0.7537555317025
-0.09172418581477104
0.1782204211370061
-0.4921783585571555
-0.05404075711861883
0.003763708052308936
0.04188045084234355
0.05278302354226874
0.1198444389335284
0.1906731649352908
-0.6927648235070479
0.1665270144311747
0.5502650008318618
-1.121102305129382
0.5598029979845176
1.126361192759326
0.624516491697887
1.665378916471314
1.410580692900107
1.247267671744047
0.9645811961194534
1.148640170077916
0.8142380600093764
-0.4659067363085605
-0.06065137334747858
0.04912299179973421
-0.00722898082257596
-0.1725740727520648
-0.2483167956229216
0.1725256485299961
0.7466722049666358
0.2909288333412904
0.2842065992890385
-0.4943425356832394
0.5325079667904009
0.7001014447980213
0.7520060916939794
1.154567225609623
1.400397607001039
-0.1667608807823541
0.01325099817413351
1.194294826657914
0.6406934966464831
-0.2616476899195772
0.02299557268719154
-0.09334018058454276
0.02104882092635624
-0.1442218584898619
-0.9557683821319447
0.1350386989414503
0.7029996880418744
-0.6334153829683626
0.9861943475585924
0.8695050946351514
0.001277214879469783
-1.103832028037195
-0.6631099343663227
-1.20292937223255
-0.4210457864605631
-0.3374106216800229
0.4937688372136716
0.2271344962953072
0.5998592621959705
0.2620706405929069
-0.1043833348801203
0.02004327227198974
0.04311670776895721
0.6668651067127602
0.1031816952140334
0.6794919465754462
0.3322143412177082
0.1459862746836393
-0.1814079137418314
-1.168840165201068
-0.8928589661426296
-1.026873431128671
-0.2742725021531002
0.00563010903736033
0.955529400676821
-0.07274155446982629
0.08872815207692103
-0.79330936356584
0.7274040697904727
-0.3162187795108563
-0.09975039589665527
0.06058850745986256
-0.006428760134333631
0.1545351530965988
0.02552499249949229
-0.05358865478454996
-0.01797912349670231
-0.5327888884217767
-1.492614577077332
-1.480571934580416
-0.8746124842595907
-0.104476107537551
-1.150510048233835
0.6946753334992036
-0.07102248628534363
-0.6046553988722695
-0.6453902878975492
0.278448993355144
0.1344936073862111
-0.4802274713799312
-0.1112287965673716
-0.03730447125357966
0.191964490814764
0.09240913086074365
0.7860115395067784
-0.07351955963285722
-0.3443247928747947
-0.5795568600708065
-1.379697890137823
-1.374722136674037
-0.1635700932403013
-0.4640149707357948
-1.050910544954491
1.19755665252176
0.07401298411584906
0.09507145469909975
-0.7673876832424803
0.1344681577698792
0.2310646755072738
-0.2698777891652767
-0.1624979538287717
-0.03004418418480202
0.04069966938657792
0.42552271491296
0.5451608861262981
0.06370840482234505
0.07482202207030787
-0.333662169544104
-0.3414020770664651
-0.445314546691814
0.02009113282686164
-0.6117285290572166
-0.228216680750682
-0.5767979716912582
0.6353681243492117
-0.1655028123145309
-0.09442006798353719
-0.001144643780275438
0.1770841342731848
-0.3233988712773033
-0.2299377879373938
-0.04901988541002417
0.007844217116945981
0.1958732233450793
0.3377662026042302
-0.08710611925131631
-0.08131899200647434
-0.8277424575623912
-0.08346541830953369
-0.4045210506675699
-0.5648907285398977
-0.7776055935245996
0.1261145877619008
-0.3762515640772104
0.1567156298921319
0.3172440885384762
-0.2052695672665674
0.1635857877658463
0.09675952486619388
-0.5318376937667174
-0.1536056958443936
0.07004885023778995
-0.02693194242576698
0.08644893836098903
0.3254503010954927
-0.2629214733021188
-0.3411073777009171
-0.1295077691663317
-0.1107768127107155
-0.6282754572345096
-0.4511417807179025
0.01719629749740686
1.301822570817669
1.143749542492032
0.2727152491063986
-0.4062096358458929
-0.7073241658506663
0.2414016725710754
-0.463810796119742
-0.8685956994813414
-0.6481374671983164
0.06472563250189542
-0.08889378522997336
-0.09021592067569868
0.277749598617274
0.6648669114539323
0.6304227096096036
0.8794127284535631
0.5992132895998216
0.02088045999801903
-0.003257963995559845
0.311081273097114
0.7865485342731172
0.8647112183911034
0.8703351167549286
0.60530932725014
0.6679742755316156
0.2317953627477765
-0.2004693872830736
-0.2002332966618401
-0.06697011264877414
0.0267708181158096
0.06181177526918336
-0.0340360219613725
-0.005289638067053278
1.033903258618023
1.214921016758755
1.495425615827586
1.002889255975132
0.6240576243279783
0.3789870886899165
0.2931985331509409
0.832012533598055
0.9760124130250524
0.433161535487007
0.3113484654382799
0.3218971520287199
-0.02150501186217059
-0.0822120443518343
0.023970586845336
-0.06158927932746097
-0.08237770898578857
0.02601530250715006
0.03877802615783807
0.01869832895713519
0.2802087244857715
0.4099002544569578
0.7150155015840337
0.4982967611308243
-0.06252106431852655
0.09584440761306408
0.008546790111315384
-0.08102108538871809
0.09293152909634725
-0.03995830049223126
-0.0289417321025149
-0.1039269096995261
-0.02149217997451646
0.05971046831477075
-0.08692517533276319
0.08819449103779151
0.05061412209338909
0.04646424029621012
0.01000920625066547
0.04971460601006573
0.1063683701290044
-0.0287168592585586
0.03108138651942983
0.056311715175175
0.01647761755741489
0.08588040818424812
-0.09492058417431426
-0.100132763511384
-0.04287306712521487
0.02714382441866078
0.08348275166909848
0.07236109896733021
-0.08338556511979624
-0.03581481533642439
-0.03333235803707079
0.01484255828507796
1.025328964240872
-0.09665663743781844
-0.0921818408557832
0.0005298773712168199
0.1009525835813819
-0.1046665616658606
0.07787713392350556
-0.05404394364882403
-0.05353984016638581
0.1006623779498057
-0.07049128804128418
0.06209694445175838
-0.07954420288224551
0.01328374663080132
-0.05212717568393847
-0.03202141986494005
-0.05816251935273532
-0.06973748207044703
0.04667413527135524
-0.0424558947106739
-0.01878546681193437
0.09795352138276024
-0.01130308152083306
-0.002763949832991347
0.03371541462646265
-0.06074424062899512
-0.09194714641403021
-0.04721321331845733
0.02010610454256302
-0.004431053704745024
0.06312689316017868
-0.07004012731110577
0.1201337125592137
-0.09192427004403314
0.08189071349756924
0.08284107108875034
0.1155977671457511
-0.03423156638890323
-0.06611878756830548
0.07763613030894669
0.06033916496853486
-0.0210403856268446
-0.09132691052580934
0.02821315036876508
-0.08417883688170365
-0.02657398831837611
0.1464366118409927
0.05471908569534706
0.4160013379413673
0.4908881197445971
0.1215717307161582
-0.0813999780109753
-0.1389349115361939
0.08571693173316217
0.393156369162946
0.6154354476509877
-0.07967945270388886
0.09138967055878895
0.2341575687471706
-0.007819809371347545
-0.06515983847212388
-0.07403148719400263
0.07777489955399931
0.09582047699065756
-0.1167188005818934
-0.4490090134834435
-0.4100340483267633
0.2840951549252449
0.5123507089840879
0.1061459839806711
0.1820993144560687
-0.5890081394067792
-0.6401647673485368
0.01141452937329634
0.6532797931282017
-0.03081758572421395
-0.2219671467302146
0.3232747279014576
0.4511594498137054
0.1290514487069976
0.06260390504035969
-0.03751967333968555
-0.01183072537544293
-0.01338237705592828
-0.06925015602852237
-0.337453684547962
-0.4056344805711978
0.03690068068995266
-0.1187306029124097
-0.7245548929732276
-0.3952213921226161
-0.5103817680932616
-0.4976215466293558
-0.4217562600217342
0.3131316685751233
0.2134942676579002
-0.1509110131046486
-0.3619962734315561
0.5787198804754604
0.3781608715314583
-0.01482281887964385
-0.09186069320784521
-0.06976631268985109
-0.06153004461235472
0.2341019996362617
0.04250730734355157
0.004699311108125938
0.3628662690174982
0.5703929043792834
0.4100024629471867
0.1239567754086596
-1.895968719963656
-1.411645574623492
-0.8293661828933192
-0.8953355515302936
0.7589358747515907
-0.5107747740549704
-0.7012708503212984
0.3779357875410864
0.5710477240151949
-0.04765892962518415
-0.099678356220294
0.09720771841559611
-0.1271825869118297
-0.2670743536181811
0.07638138301607614
0.1607704847745378
0.7247956177001976
0.586847587515125
0.7124380320608436
0.3109569749099462
-0.1061094054299905
-0.9978068140566689
-1.50998700256728
-1.150968185411274
0.2991400334376026
0.1437990062609096
-0.5445737844576125
0.4642460772843507
0.5477049889198771
-0.07051546537850382
-0.02701043813735499
0.05930992798793739
-0.2994308124322128
-0.1059289706559559
-0.06285797183703278
-0.5750854714967072
-0.5676472330640616
0.9332532698503697
1.42536445771352
0.574440697276871
0.5151972779047259
-0.1441350502346815
-1.905525863957497
-1.062868946881771
-0.9333920750788479
-0.4295198553057423
-1.264763298276201
0.508442817489581
0.8934457950715688
-0.01770980228064364
0.06507677749850523
-0.135024243173365
0.2374400788441684
0.6406171701136841
0.991113424904292
0.4692750459611205
0.8688054989539934
0.4754243553369298
0.7657373765272876
0.2217115738901604
0.1586400695760818
-0.6413468527458381
-1.617333273588258
-1.623261794040476
-1.514184549150332
0.01080816874642841
-0.6678784020825358
-0.1533867881125298
0.7547023716831517
0.06582817242698041
0.0756884414258739
-0.09518141334522869
0.405595699398328
0.288404348794655
0.9144463574999472
0.6224656518316889
-0.4855009035629583
-0.575960504410321
0.4949700963138649
1.060469310745572
0.3975670357125283
1.197010521215696
-0.07512570310743411
-0.4081625027414713
-1.144799791718649
-0.1661721535080763
-1.374236531543158
-0.5801902445835424
0.5935533074495958
0.1062976126523943
-0.0226674888540346
-0.1394526608282046
-0.304533295558991
-0.5133907677157247
-0.2782373409675208
0.07865763080874397
0.1012083293694884
0.4334106917428778
0.500436144940795
1.480969263613534
0.2149119354099668
0.4390352673049546
-0.5247349584823718
-0.8141779672488718
-0.7467158142663106
0.2970095137608808
0.1950035111792826
1.081583032324031
0.9577892993880417
0.08838581953031686
-0.05361607170609298
-0.1282074655920718
0.03184927823011707
0.2032708312612919
-0.3754756084258546
0.2164815655343483
0.3430602517877381
0.4074691419099809
0.06330196084484528
0.7678993504856536
0.2781602547181743
-0.3104574012492126
1.041781310170464
0.09774683960038322
0.1231273360672364
-0.781980071110863
0.777186155572992
1.49312568099916
0.6140594834780463
-0.05961620510116492
0.003885655387736298
-0.1663291347360114
0.3435303724646274
-0.09287785671632766
-0.8675242732440309
0.8417037656679472
0.4737317020374491
0.8723708046789729
1.102479312935569
0.7712620056731331
0.4542016932696409
-0.03644262159162855
0.4824621845540653
-0.2638878810308311
0.1395139809380279
-0.6399890348994034
-0.04301542653212884
0.2385920982896313
-0.06078890497870001
0.01471282509268427
-0.05179377800944565
-0.04086724829733615
0.2319446427937808
0.3949592667140257
-0.1584696969013307
0.5139242736067382
-0.1510330777438561
0.6902737638100612
0.6256384849697495
0.8575911327712896
0.7823517422401302
-0.2767084927714327
-0.2146835814791588
-0.5921082316911733
-0.858760125029188
-0.8285428687504052
-0.7206204114756097
-0.4023705242965102
0.318606885209337
-0.0182524734357315
0.04349554967724615
-0.1240793432843765
-0.1103568611523124
-0.3012635353540719
-0.2717405945220504
0.2206228713224221
0.5708780041254291
-0.06436152164361114
-0.2238393762562907
-0.4337909512575892
-0.3869838020597106
-0.4508297880029414
-0.05789048326581248
0.7652144340215059
0.0671570525062944
-0.7940372178097702
-0.2150426698748425
-0.1979058953618923
0.1696702516743631
0.06761851183443462
-0.05352469523720057
-0.07725625123087509
0.3131967721783455
0.1299371073342313
0.7788906698898547
-0.4031147161942097
0.3543665125024649
-0.3641622784988394
-0.5321709580236071
0.3668208869586192
0.0004047294601713762
-0.8221571770950128
-0.246241971968717
-0.007599308461514894
-0.2976096387747789
-0.2230090824118228
0.07007383220536258
-0.1009342171295337
0.2868917120421381
0.2257873909712017
-0.08125847692580677
0.06035246095474794
0.3142804551457212
0.06482549482826687
1.003249143683026
0.2674746968008784
0.4778132767832958
0.2544472911347613
0.04007799935082308
-0.2847940739354998
-0.3407642493154934
-0.8559542737700598
-0.9873603375635623
-1.277140871555529
-0.6139487948386418
0.2350314296888053
-0.08209971458635512
-0.1321498369446731
0.1826808849060903
0.06246400544493368
0.01226709729216626
0.0594991944394706
0.1812655694973245
0.09029117344938749
0.2626049795127851
0.6365891225517649
1.078131661836345
0.2408619885841067
-0.205480338183242
-0.9623710380626089
-0.5189478899091169
-0.420769978750106
-0.8857172606278688
-0.9143313586945659
-0.486506070015103
0.1523191139908872
-0.0632896987435924
0.02927866816367133
0.07979175854314806
0.03475399258939291
0.003492751626433715
0.07309545696105674
-0.07230168930494194
0.05537146914616023
0.1797991332844605
0.381138919405594
0.633728385739303
0.3743198831211806
0.02406241915680999
-0.2552066868209061
-0.2997502222644664
-0.7540104262782414
-0.524019315444101
-0.005478623064738444
-0.05182636845835974
0.0699769516910566
-0.05767996650178038
-0.09595275813846126
0.03224110336162386
0.00543858633457224
-0.02546531073918931
0.05808017085467666
-0.1026005646945383
-0.05068593421462565
-0.1410470875761922
-0.01595965130789715
0.07496121755777825
0.104304752326308
-0.08638892668192942
0.009581909106476957
-0.08083329036313458
-0.1565603591780338
-0.2783155929980291
-0.08272317574412277
-0.04753435421709924
-0.1062995690290911
-0.03514296352988293
0.07688489570376568
0.06640061680282786
0.1007987834192991
0.157283611718678
-0.09459495869878126
0.02910815771305758
0.0928019048864699
-0.05202560646741924
-0.04269001556605422
-0.05786464395120226
0.04833570736636643
-0.09178383681200811
0.08235813741144546
-0.05645902588618666
-0.1008696934776145
0.02438592268968537
0.09311203496446732
0.04949559340981676
-0.1021463430001933
-0.09620187426890285
-0.02310140956474138
-0.101735816192383
-0.06655179626208395
-0.05866532465786347
-0.03809625003926288
0.02589187273181558
0.02385898661301427
-0.07880538252658671
-0.03941080664259877
-0.02134276952442551
-0.0639107025816688
0.09787899472372154
0.01263131560225963
0.08732894084063818
0.002178192671674262
0.0216587486803801
0.02331325913311909
0.09378521930128512
-0.03022174697323406
-0.04678621339329582
-0.07154036442734639
0.04370359750299468
-0.08067688987248091
-0.08622362030364873
-0.04280285989626511
-0.09292095465691778
0.0255617445279407
-0.002323263862447279
-0.01589632396260814
-0.02645814466857564
-0.002446448905253727
0.1490524382108935
-0.003435063646427946
-0.005040688273103813
0.1198647439276437
0.09628320824527536
0.1945307231160946
0.3306807154419645
0.2076393804638434
0.07414508826345961
0.05503038712573083
-0.01337003333046147
0.0975243115240694
0.06977825902785921
0.08905681913637613
0.09781328649991453
0.03131326466170719
-0.1376035188632498
-0.07226289547828015
-0.1556663607816588
-0.02139400040427341
0.1114593263342569
0.005306281947164745
-0.002372608980386603
-0.128162623277081
0.2747335271617592
0.08839561219651751
-0.003249966113274347
0.009916844950937715
0.3224060757331307
0.153481387026429
-0.049891229392549
-0.03074265860906351
-0.01446054835408997
0.04823484895648506
0.00910740480359086
0.06547311354041566
9.328920350190457e-05
0.02566306995050257
0.06276746815010818
0.4000375493744554
0.8121876837506247
0.5314535809176343
-0.3036529419684111
-0.6493190008539975
-0.2606929740871901
-0.5363510235486516
0.1359994371796324
0.3171290348811213
0.4555651862804789
0.4376898128745276
0.160841662838622
0.2891734402823038
-0.0054494828239968
-0.04254539775485944
-0.04256133584106555
0.04401385944527764
0.03266919521764632
-0.4715968896203462
-0.04567579244083363
0.185347072633945
0.7045774900223223
0.5198406787376773
-0.4569733175560741
-0.8164395929168858
-1.21862991002553
-1.283913162794163
0.2365148680932075
1.059169737112581
0.6566198509832734
0.5204827916789917
0.4250517608068886
0.4178117749074884
0.1155012315400868
-0.04765168518572466
0.0204314307941801
0.004104639472177647
-0.1430185125097638
-0.667254904556021
-0.562606292018779
0.848154050764501
0.9420397234196569
-0.001066192464267585
-0.5326389344179002
-0.742045701346262
-1.097358969169338
-0.9462359941681242
-0.07776960223374468
0.2545058030617975
0.2217441650606986
0.4549010165211463
0.6883558753880268
0.5384033347554771
0.05742548890911495
-0.07001615198179659
-0.05010647019881923
-0.02821174530966499
-0.5046269326375169
-0.2859384143081571
0.7492784281469178
1.328096590087872
0.4752141737315569
-0.5060242330232895
-1.475694092676285
-0.7050178069565931
-0.407704313618824
0.6707438135137467
0.1039085020194965
-0.2933637258408662
-0.09218026896132504
-0.05845881044170397
0.9365392376348954
0.8150375341912697
0.001767786224227597
0.003583541131064525
-0.05299002833872531
-0.06940658385291515
-0.2103104298611201
-0.4404608019135736
0.5470373204583877
1.081405005354247
1.075001600568298
0.1437773733935425
-2.145017153683817
-0.8286761877894593
-0.6051626675970337
0.08359752681263563
-0.5921163518018318
-1.23293334960309
-0.2888105939328062
-0.3639421332833991
0.08928398659839999
0.5886605498370102
-0.05015567274586558
-0.0706270645459697
-0.04265470819519811
0.09544222508932322
-0.3506879433876967
0.01230971489481031
1.328775016102103
1.128468300466749
1.118514468356762
-0.1011915654155514
-1.063369451434522
-0.4874614536479938
-0.2748302570700824
0.01932925043548559
-0.6080091148593473
-0.8756752853457549
-0.4711611788178864
-0.4186546634774009
0.5977832630167091
1.071267477634155
-0.003192316237533636
0.06328796122831853
-0.04480250398839176
-0.2987126876206012
-0.7198860933865242
0.8007809831390189
2.015524229239922
1.673282329850494
1.567452777341171
1.109150629402715
0.5817273684034998
-0.05077423269420815
-0.7777069602461325
0.05733281221195798
-0.4019384306369035
-0.2194109759976694
-0.4787913974989711
0.1894154160667083
-0.04554588562669224
0.3748090844507371
0.06871643754184369
0.02174605061809146
-0.04709982304364222
0.1149148652055773
-0.3674026643647011
0.8068929910530707
1.408452844405199
-0.364940601107656
0.2832570470291569
0.3745021340854305
-0.530289272717411
-0.3358928437367962
-1.190189601525068
-0.3759097759348897
-0.4849024309365518
-1.067154241842076
-0.7550447572176675
-0.4573212357465522
0.5490804217590256
0.2888023083514824
0.09518359097294035
0.1026236578284571
-0.02914830928707663
0.01234272364141565
-0.5899435570538618
0.3321394952148523
0.9436546359776841
0.1523720941125521
0.20950682738262
1.117349942770821
-0.3718458414895522
-0.0788336252396046
-0.3397500513022795
-0.2156696311850633
0.008291476468543287
-0.1204617671412799
-0.409802521291785
-0.2064148073546799
0.8198491051951695
0.9335662141327695
0.02562751775183661
-0.05483399207892527
-0.03994193551304531
-0.2891621438994607
-0.01936474419021275
0.8495045958813299
0.8874520878158465
0.1795886681294764
0.09867276442743753
0.6128718241498631
0.4506227805617001
0.1287121556467551
-0.7041667752342481
-0.1152959781589509
0.8269717829591284
0.6633589039327604
-0.05183815390847231
-0.5829696778040822
0.50701735147473
0.5664191789847699
0.02641324254777779
-0.09824051325646148
-0.1128124118606856
-0.230561236028264
-0.539479912781285
-0.4493415027043059
0.9336969165237787
0.8768845051572851
0.01553304892312933
0.2595774457308612
0.2255281505302733
0.2020293108304512
-0.6311832873336187
-0.5082239159117993
0.4211273874093613
0.09922533185695484
-0.05218790806514822
0.2513398426664218
0.4161602735520141
0.3898378765052062
-0.02576245097700505
0.06086497066170449
-0.05553337324730044
-0.0005110090010154621
-0.2852932952222355
-0.503160042604593
-0.02420080984148452
0.3280543409773374
0.08191121463602784
0.175881961214612
-0.02137781910867849
-0.6138196655575435
-0.6970193070333366
-0.2751376758489077
-0.4461393135746916
-0.5237297869132189
-0.2951214600503179
-0.192398112167334
-0.09399566354712888
0.007432115388369126
-0.03355491052761928
-0.007405284314394524
0.0577941165604764
0.02379564574265467
-0.0187438245280579
-0.2747913027377023
-0.05382823937646571
0.01195177057223218
-0.1837231562771037
-0.2458140321020547
-0.2587185860007646
-0.6072899229509715
-0.5040843913258023
-0.3516614389198489
0.01426677931002561
0.2266713751247063
0.07272155299842531
-0.1027022477952841
-0.06684346893825388
-0.01459733780161378
0.02536627674822183
0.07553251147428475
0.0114442863861857
-0.007086135642585539
0.09119742065076086
0.01327534497503302
0.1244329508725247
0.3589494405203226
0.02916147888446934
-0.05389901084808643
-0.1628920234719747
-0.1060623797002257
0.0856259505689505
-0.054102780803305
0.1161860550333619
0.3272381611233348
0.1032185273993746
-0.08853219015023729
-0.02023108228119029
0.03897472112342317
0.08754046240887393
0.07575667961056091
0.05077626291978268
0.02604970015152827
0.00806160051413954
0.07462752550382357
-0.03176113563599267
0.1213121964821673
0.1879594999904315
0.09574796971995614
0.1867447898822691
0.05491361073940666
0.007194852262482075
0.02023974656451968
0.01632042752445158
-0.08686534405367276
0.07729601414559595
0.05571009269249872
0.09647701189732164
-0.04885235002029889
0.08293514119955428
-0.07234345000570931
-0.06150402150108417
0.09847709842865555
0.05798834498253235
0.04083690854252012
-0.05410642226044182
0.1187850054665066
-0.08665326158403205
0.051816456732005
0.03935745595337938
-0.0454536920891812
0.09737514040381609
0.0577458975203372
-0.04319639884024087
-0.06705058695089652
-0.09300733175784483
-0.03666652279397679
0.05799164906727605
-0.03436853625205474
0.03036836620748154
-0.431269866190046
0.0568772438714332
0.0594585629699329
-0.005266419507311468
-0.04591897758442481
0.00593917626798468
-0.02842430357921888
0.01671047659395655
-0.01174079467732398
0.02175590944114144
0.1051937065715123
0.05479594691170984
0.06971328076417574
-0.06503827179412786
0.08474183053988341
-0.006259607915767081
0.08093400037958938
0.01569411088939302
-0.0618836389626063
0.1001416623250936
-0.09499770760617535
0.04509734845405262
-0.09995951099213711
-0.06398086459758648
0.0513851288822037
-0.09485253017680599
-0.03961494270381198
-0.06080634622285978
0.1225185296732021
0.02414954229606122
0.08267356273908504
0.04082188409375227
0.1068469117488631
0.004195808666305433
0.05688732975077541
-0.0214807154988755
-0.0006849052667886566
0.01131070045508262
0.07598261374854266
0.0814918724466162
0.004638735762523758
0.1024221400291306
-0.0625389853923872
-0.06726265259020928
-0.1223325759052068
-0.09387271867956941
0.01719484762472124
-0.05778294682396576
0.004733929047494292
0.3351878719137605
0.001502413823864624
-0.2134771530454759
-0.1622915406154425
-0.428802066406742
-0.4198272780440273
-0.1904158513145345
-0.1662015593853315
-0.01468194001337271
-0.2520127056120874
0.04155330653410931
0.03649539611396797
0.04919345052470737
-0.009734334430285013
-0.07329513754874364
-0.1172632950718816
-0.05517953731363457
0.2094270369917396
0.2213610905271502
0.3577483844984787
0.6415866052724818
0.6987087894275196
0.1658569768004905
-0.5367172985419563
-0.8417411467204789
-1.032758545006575
-1.044975296922737
-0.5974034237066933
-0.6397850296272585
-0.9427286497643648
-0.09774746464914123
-0.06164311436418526
-0.0283717210357391
-0.07011197291199352
0.08099921120611038
-0.1607812695233752
0.2472413747540165
0.6806125520426515
0.1713125629675736
0.1208096732673016
0.5980836940467696
0.7833030633219609
0.000798345669475412
0.05195576575089067
-0.8895265992736666
-1.669568456622286
-1.142190876746597
-0.7041561671882934
-0.8817631106344278
-0.8946609147501788
0.03279828526412691
0.08705386296193605
0.04954556845498834
0.07419685999920354
0.01705132605097722
0.112539888776026
0.3391511364765984
0.6759748358302662
0.0297239628315535
0.1666697499121458
0.9006418513927553
0.6247091928779779
0.01432122955652034
0.4978093718592194
0.4046588558025886
-1.562030853189813
-0.6894688294465495
0.228549337081971
-0.3520075298019156
-0.2108052093380185
0.2832661812677688
0.002106265199096813
-0.07576144627206542
-0.08019228365790231
0.1875441873503234
0.4938416107363959
0.4484973335325619
0.5301175293341691
0.4498799213127962
0.635094075209468
1.208998349835777
0.305001357983307
-0.328610118408145
-0.08835818350242799
0.651903169883074
0.4171674150769328
-0.4762992498163862
-0.2582633889580477
-0.4344130067800451
0.3160648985154837
0.4155507982287182
0.05585890591980115
-0.05719523788577944
-0.03071626452492348
0.07604792785425771
0.4363326656113394
-0.6270771050132531
-0.3326717122934897
0.1442285718950925
0.1335873513295964
0.397318609193384
-0.02410822402256142
-1.618216599187004
-0.5222755919957601
0.5715997747567148
0.9498344579807247
-0.8308741072466912
-1.372678883402932
-0.820557077651369
0.2767537028882017
0.3034899166475206
0.1942936035382777
0.08223660077399715
0.00332859708626012
-0.1153567612681751
-0.02386387592568577
-0.1833022436441132
-0.09538840841752827
0.03318089808044159
0.282951737389208
0.009547700349332569
0.05393833768580133
-1.146060838465949
0.4487721034665261
0.5632306141649676
0.8124461533577965
-0.2128210941206227
-0.8082032402964486
-0.858590485173801
-0.2697237961192934
0.3961422428751214
0.3720301888689301
0.03413438397253384
0.09643882511162788
-0.295188353199302
-0.851791593287615
0.01225807743185214
0.5198058003217582
0.2354742117582506
-0.01844293016654825
0.1242319685342474
0.01518481511010119
0.5353841280457871
1.129926611390505
1.175413959227534
0.5891582351695897
-0.309039632710427
-0.07080175417684557
-0.3769023625042281
-0.286735855524094
-0.4487478433980303
0.3309823148725138
-0.02963962816701283
0.1186833860628345
-0.1700758813955067
-0.7122630027383234
0.008987395697474903
-0.07677453438454071
-0.1010481840358164
-0.8460271819491658
-0.1009215851135189
0.97055746337482
0.8354666802976367
0.9021009856902626
0.5301793839701718
-0.1422053762533883
0.01404470216956971
-0.461878321205214
-0.6632565549462671
-0.1609080681967751
0.2214147340360079
0.06184976796300008
-0.1236438878021137
0.1123048223638504
0.2775692430186228
0.1379455960399777
0.1362326471969513
0.105775737249767
-0.625273455968678
0.126988080997538
0.8867806745425298
0.8809516572395685
-0.423858541921138
0.8763476863779301
-0.2896410131132237
0.3244747540107399
0.9858887697013196
-0.2251258113143041
-0.6705432345088491
-0.2403310445428865
0.351423797648967
0.003936075198066696
-0.08851348422110406
0.001064594424186765
0.396643568260473
0.6273859742293701
-0.4519008018711644
-0.4018650137666418
-0.3742546034316163
